{"learner":{"attributes":{"best_iteration":"99","best_ntree_limit":"100","scikit_learn":"{\"n_estimators\": 100, \"objective\": \"reg:squarederror\", \"max_depth\": null, \"max_leaves\": null, \"max_bin\": null, \"grow_policy\": null, \"learning_rate\": null, \"verbosity\": null, \"booster\": null, \"tree_method\": null, \"gamma\": null, \"min_child_weight\": null, \"max_delta_step\": null, \"subsample\": null, \"sampling_method\": null, \"colsample_bytree\": null, \"colsample_bylevel\": null, \"colsample_bynode\": null, \"reg_alpha\": null, \"reg_lambda\": null, \"scale_pos_weight\": null, \"base_score\": null, \"missing\": NaN, \"num_parallel_tree\": null, \"random_state\": null, \"n_jobs\": null, \"monotone_constraints\": null, \"interaction_constraints\": null, \"importance_type\": null, \"gpu_id\": null, \"validate_parameters\": null, \"predictor\": null, \"enable_categorical\": false, \"feature_types\": null, \"max_cat_to_onehot\": null, \"max_cat_threshold\": null, \"eval_metric\": null, \"early_stopping_rounds\": null, \"callbacks\": null, \"_estimator_type\": \"regressor\"}"},"feature_names":["year","na_sales","eu_sales","jp_sales","other_sales","global_sales","platform_2600","platform_3DO","platform_3DS","platform_DC","platform_DS","platform_GB","platform_GBA","platform_GC","platform_GEN","platform_GG","platform_N64","platform_NES","platform_NG","platform_PC","platform_PCFX","platform_PS","platform_PS2","platform_PS3","platform_PS4","platform_PSP","platform_PSV","platform_SAT","platform_SCD","platform_SNES","platform_TG16","platform_WS","platform_Wii","platform_WiiU","platform_X360","platform_XB","platform_XOne","genre_Action","genre_Adventure","genre_Fighting","genre_Misc","genre_Platform","genre_Puzzle","genre_Racing","genre_Role-Playing","genre_Shooter","genre_Simulation","genre_Sports","genre_Strategy","publisher_505 Games","publisher_5pb","publisher_Acclaim Entertainment","publisher_Activision","publisher_Alchemist","publisher_Atari","publisher_Atlus","publisher_Banpresto","publisher_Bethesda Softworks","publisher_Capcom","publisher_Codemasters","publisher_Crave Entertainment","publisher_D3Publisher","publisher_DTP Entertainment","publisher_Deep Silver","publisher_Destineer","publisher_Disney Interactive Studios","publisher_Eidos Interactive","publisher_Electronic Arts","publisher_Empire Interactive","publisher_Focus Home Interactive","publisher_GT Interactive","publisher_Hudson Soft","publisher_Idea Factory","publisher_Ignition Entertainment","publisher_Infogrames","publisher_Kadokawa Shoten","publisher_Konami Digital Entertainment","publisher_LucasArts","publisher_MTV Games","publisher_Majesco Entertainment","publisher_Marvelous Interactive","publisher_Microsoft Game Studios","publisher_Midway Games","publisher_Namco Bandai Games","publisher_Nintendo","publisher_Nippon Ichi Software","publisher_Other","publisher_Rising Star Games","publisher_Sega","publisher_Sony Computer Entertainment","publisher_Square Enix","publisher_SquareSoft","publisher_THQ","publisher_Take-Two Interactive","publisher_Tecmo Koei","publisher_Ubisoft","publisher_Virgin Interactive","publisher_Vivendi Games","publisher_Warner Bros. Interactive Entertainment","publisher_Zoo Digital Publishing"],"feature_types":["float","float","float","float","float","float","float","float","float","float","float","float","float","float","float","float","float","float","float","float","float","float","float","float","float","float","float","float","float","float","float","float","float","float","float","float","float","float","float","float","float","float","float","float","float","float","float","float","float","float","float","float","float","float","float","float","float","float","float","float","float","float","float","float","float","float","float","float","float","float","float","float","float","float","float","float","float","float","float","float","float","float","float","float","float","float","float","float","float","float","float","float","float","float","float","float","float","float","float","float"],"gradient_booster":{"model":{"gbtree_model_param":{"num_parallel_tree":"1","num_trees":"100","size_leaf_vector":"0"},"tree_info":[0,0,0,0,0,0,0,0,0,0,0,0,0,0,0,0,0,0,0,0,0,0,0,0,0,0,0,0,0,0,0,0,0,0,0,0,0,0,0,0,0,0,0,0,0,0,0,0,0,0,0,0,0,0,0,0,0,0,0,0,0,0,0,0,0,0,0,0,0,0,0,0,0,0,0,0,0,0,0,0,0,0,0,0,0,0,0,0,0,0,0,0,0,0,0,0,0,0,0,0],"trees":[{"base_weights":[-3.505135E-1,-3.9073947E-1,2.9158695E0,-4.4284022E-1,2.7349693E-1,2.3560464E0,9.846E0,-4.765919E-1,-2.6857737E-1,8.318181E-2,6.659774E-1,1.8123655E0,3.6589189E0,6.7214284E0,1.28525E1,-4.9037293E-1,-4.2276403E-1,-3.1820628E-1,-1.7153578E-1,3.8700525E-3,2.2527918E-1,5.338418E-1,9.1844445E-1,1.5107408E0,2.17425E0,2.9361904E0,4.3364706E0,-4.978343E-1,-4.715532E-1,-4.369829E-1,-3.948445E-1,-3.4628618E-1,-2.8220648E-1,-2.0756249E-1,-1.2547244E-1,-4.0000003E-2,5.2678566E-2,1.6096154E-1,2.9404256E-1,4.5E-1,6.154023E-1,7.9039216E-1,1.05875E0,-3.5889882E-1,-3.303136E-1,-2.9476342E-1,-2.5825843E-1,-2.243889E-1,-1.8460992E-1,-1.4328244E-1,-1.05645165E-1,-5.792793E-2,-1.3636365E-2,2.5955047E-2,8.175E-2,1.3291666E-1,1.817544E-1,2.5458333E-1,3.280851E-1],"categories":[],"categories_nodes":[],"categories_segments":[],"categories_sizes":[],"default_left":[1,1,1,1,1,1,1,1,1,1,1,1,1,0,0,1,1,1,1,1,1,1,1,0,0,0,0,0,0,0,0,1,1,1,1,1,1,1,1,0,0,0,0,0,0,0,0,0,0,0,0,0,0,0,0,0,0,0,0],"id":0,"left_children":[1,3,5,7,9,11,13,15,17,19,21,23,25,-1,-1,27,29,31,33,35,37,39,41,-1,-1,-1,-1,-1,-1,-1,-1,43,45,47,49,51,53,55,57,-1,-1,-1,-1,-1,-1,-1,-1,-1,-1,-1,-1,-1,-1,-1,-1,-1,-1,-1,-1],"loss_changes":[1.4903533E3,3.8761792E2,5.121937E2,6.094153E1,6.0821003E1,8.474536E1,7.5531006E0,6.2441406E0,8.070129E0,6.197625E0,8.383423E0,6.8665466E0,5.3857117E0,0E0,0E0,7.3669434E-1,5.340576E-1,1.029396E0,9.248562E-1,7.6010334E-1,8.239422E-1,9.334221E-1,7.8015137E-1,0E0,0E0,0E0,0E0,0E0,0E0,0E0,0E0,6.7596436E-3,7.242584E-2,8.216286E-2,7.455659E-2,8.759478E-2,1.2839586E-1,3.648758E-2,4.2744637E-2,0E0,0E0,0E0,0E0,0E0,0E0,0E0,0E0,0E0,0E0,0E0,0E0,0E0,0E0,0E0,0E0,0E0,0E0,0E0,0E0],"parents":[2147483647,0,0,1,1,2,2,3,3,4,4,5,5,6,6,7,7,8,8,9,9,10,10,11,11,12,12,15,15,16,16,17,17,18,18,19,19,20,20,21,21,22,22,31,31,32,32,33,33,34,34,35,35,36,36,37,37,38,38],"right_children":[2,4,6,8,10,12,14,16,18,20,22,24,26,-1,-1,28,30,32,34,36,38,40,42,-1,-1,-1,-1,-1,-1,-1,-1,44,46,48,50,52,54,56,58,-1,-1,-1,-1,-1,-1,-1,-1,-1,-1,-1,-1,-1,-1,-1,-1,-1,-1,-1,-1],"split_conditions":[1.77E0,4.15E-1,6.74E0,1.25E-1,8.75E-1,3.2150002E0,1.517E1,4.5E-2,2.55E-1,6.15E-1,1.225E0,2.335E0,4.0950003E0,2.0164287E0,3.85575E0,1.5E-2,8.5E-2,1.85E-1,3.35E-1,5.05E-1,7.25E-1,1.035E0,1.42E0,4.5322224E-1,6.5227497E-1,8.8085717E-1,1.3009412E0,-1.493503E-1,-1.4146596E-1,-1.3109487E-1,-1.1845335E-1,1.55E-1,2.25E-1,2.9500002E-1,3.75E-1,4.65E-1,5.55E-1,6.55E-1,7.95E-1,1.35E-1,1.846207E-1,2.3711766E-1,3.1762502E-1,-1.0766965E-1,-9.9094085E-2,-8.842903E-2,-7.747753E-2,-6.731667E-2,-5.538298E-2,-4.2984735E-2,-3.169355E-2,-1.7378379E-2,-4.0909094E-3,7.7865147E-3,2.4525E-2,3.9875E-2,5.452632E-2,7.6375E-2,9.842553E-2],"split_indices":[2,2,2,2,2,2,1,2,2,2,2,2,2,0,0,2,2,2,2,2,2,2,2,0,0,0,0,0,0,0,0,2,2,2,2,2,2,2,2,0,0,0,0,0,0,0,0,0,0,0,0,0,0,0,0,0,0,0,0],"split_type":[0,0,0,0,0,0,0,0,0,0,0,0,0,0,0,0,0,0,0,0,0,0,0,0,0,0,0,0,0,0,0,0,0,0,0,0,0,0,0,0,0,0,0,0,0,0,0,0,0,0,0,0,0,0,0,0,0,0,0],"sum_hessian":[1.1333E4,1.1196E4,1.37E2,1.0382E4,8.14E2,1.28E2,9E0,8.696E3,1.686E3,5.49E2,2.65E2,9.2E1,3.6E1,6E0,3E0,6.917E3,1.779E3,1.114E3,5.72E2,3.53E2,1.96E2,1.76E2,8.9E1,5.3E1,3.9E1,2E1,1.6E1,4.935E3,1.982E3,1.169E3,6.1E2,6.21E2,4.93E2,3.19E2,2.53E2,1.86E2,1.67E2,1.03E2,9.3E1,9E1,8.6E1,5E1,3.9E1,3.35E2,2.86E2,3.16E2,1.77E2,1.79E2,1.4E2,1.3E2,1.23E2,1.1E2,7.6E1,8.8E1,7.9E1,4.7E1,5.6E1,4.7E1,4.6E1],"tree_param":{"num_deleted":"0","num_feature":"100","num_nodes":"59","size_leaf_vector":"0"}},{"base_weights":[-2.4454743E-1,-2.7136198E-1,2.3064992E0,-3.0850723E-1,2.3230577E-1,1.8356028E0,7.805623E0,-3.327294E-1,-1.7766106E-1,8.771532E-2,5.3687465E-1,1.4522454E0,2.9064264E0,5.6982946E0,1.2332125E1,-3.4522858E-1,-2.9910463E-1,-2.1408503E-1,-1.03880525E-1,3.0414324E-2,2.0790134E-1,4.2864963E-1,7.716517E-1,1.2138984E0,1.7941767E0,2.3213801E0,3.5995545E0,-3.505602E-1,-3.367471E-1,-3.1289542E-1,-2.77673E-1,-2.3287316E-1,-1.8377551E-1,-1.3060066E-1,-7.261291E-2,5.4111547E-4,8.110416E-2,1.6840172E-1,2.587772E-1,3.6607713E-1,4.9603206E-1,6.430844E-1,8.68855E-1,-2.8688478E-1,-2.6441485E-1,-2.4097401E-1,-2.1702191E-1,-1.9197848E-1,-1.686547E-1,-1.4312616E-1,-1.146446E-1,-8.7275416E-2,-5.7257753E-2,-2.0447005E-2,1.7801173E-2,5.8055807E-2,9.681329E-2,1.4249797E-1,1.9041936E-1],"categories":[],"categories_nodes":[],"categories_segments":[],"categories_sizes":[],"default_left":[1,1,1,1,1,1,1,1,1,1,1,1,1,0,0,1,1,1,1,1,1,1,1,0,0,0,0,0,0,0,1,1,1,1,1,1,1,1,0,0,0,0,0,0,0,0,0,0,0,0,0,0,0,0,0,0,0,0,0],"id":1,"left_children":[1,3,5,7,9,11,13,15,17,19,21,23,25,-1,-1,27,29,31,33,35,37,39,41,-1,-1,-1,-1,-1,-1,-1,43,45,47,49,51,53,55,57,-1,-1,-1,-1,-1,-1,-1,-1,-1,-1,-1,-1,-1,-1,-1,-1,-1,-1,-1,-1,-1],"loss_changes":[7.759304E2,2.0992902E2,2.912351E2,3.305133E1,3.3906017E1,4.0935028E1,1.5577393E1,3.6011963E0,4.3689346E0,3.6023483E0,5.970604E0,4.5864105E0,2.998413E0,0E0,0E0,1.7211914E-1,6.2127686E-1,5.796242E-1,4.4334364E-1,5.3903544E-1,2.9604006E-1,5.4361916E-1,4.0353394E-1,0E0,0E0,0E0,0E0,0E0,0E0,0E0,3.981018E-2,3.3866882E-2,2.008915E-2,4.1749954E-2,5.1739335E-2,8.1871614E-2,4.217261E-2,2.8758764E-2,0E0,0E0,0E0,0E0,0E0,0E0,0E0,0E0,0E0,0E0,0E0,0E0,0E0,0E0,0E0,0E0,0E0,0E0,0E0,0E0,0E0],"parents":[2147483647,0,0,1,1,2,2,3,3,4,4,5,5,6,6,7,7,8,8,9,9,10,10,11,11,12,12,15,15,16,16,17,17,18,18,19,19,20,20,21,21,22,22,30,30,31,31,32,32,33,33,34,34,35,35,36,36,37,37],"right_children":[2,4,6,8,10,12,14,16,18,20,22,24,26,-1,-1,28,30,32,34,36,38,40,42,-1,-1,-1,-1,-1,-1,-1,44,46,48,50,52,54,56,58,-1,-1,-1,-1,-1,-1,-1,-1,-1,-1,-1,-1,-1,-1,-1,-1,-1,-1,-1,-1,-1],"split_conditions":[1.97E0,4.45E-1,7.315E0,1.3499999E-1,9.45E-1,3.5549998E0,2.8670002E1,3.5E-2,2.75E-1,6.75E-1,1.335E0,2.68E0,4.775E0,1.7094885E0,3.6996377E0,5E-3,7.5E-2,2.05E-1,3.5500002E-1,5.65E-1,8.15E-1,1.115E0,1.575E0,3.6416954E-1,5.38253E-1,6.9641405E-1,1.0798664E0,-1.0516806E-1,-1.01024136E-1,-9.386863E-2,1.05000004E-1,1.7500001E-1,2.45E-1,3.15E-1,3.9499998E-1,4.95E-1,6.05E-1,7.45E-1,7.7633165E-2,1.09823145E-1,1.4880963E-1,1.9292533E-1,2.606565E-1,-8.606544E-2,-7.9324454E-2,-7.229221E-2,-6.510658E-2,-5.7593547E-2,-5.0596412E-2,-4.293785E-2,-3.439338E-2,-2.6182625E-2,-1.7177327E-2,-6.1341017E-3,5.340352E-3,1.7416744E-2,2.904399E-2,4.2749394E-2,5.712581E-2],"split_indices":[2,2,2,2,2,2,1,2,2,2,2,2,2,0,0,2,2,2,2,2,2,2,2,0,0,0,0,0,0,0,2,2,2,2,2,2,2,2,0,0,0,0,0,0,0,0,0,0,0,0,0,0,0,0,0,0,0,0,0],"split_type":[0,0,0,0,0,0,0,0,0,0,0,0,0,0,0,0,0,0,0,0,0,0,0,0,0,0,0,0,0,0,0,0,0,0,0,0,0,0,0,0,0,0,0,0,0,0,0,0,0,0,0,0,0,0,0,0,0,0,0],"sum_hessian":[1.1333E4,1.1216E4,1.17E2,1.0446E4,7.7E2,1.09E2,8E0,8.813E3,1.633E3,5.23E2,2.47E2,8.2E1,2.7E1,7E0,1E0,6.418E3,2.395E3,1.092E3,5.41E2,3.55E2,1.68E2,1.71E2,7.6E1,5.1E1,3.1E1,1.7E1,1E1,3.916E3,2.502E3,1.449E3,9.46E2,6.7E2,4.22E2,2.9E2,2.51E2,2.24E2,1.31E2,9.7E1,7.1E1,9.2E1,7.9E1,3.6E1,4E1,5.46E2,4E2,4.34E2,2.36E2,2.66E2,1.56E2,1.58E2,1.32E2,1.26E2,1.25E2,1.01E2,1.23E2,5.5E1,7.6E1,4.8E1,4.9E1],"tree_param":{"num_deleted":"0","num_feature":"100","num_nodes":"59","size_leaf_vector":"0"}},{"base_weights":[-1.7046046E-1,-1.8830661E-1,1.8775766E0,-2.1447146E-1,2.0110604E-1,1.4844143E0,6.7766266E0,-2.3236966E-1,-1.1567179E-1,1.0162853E-1,4.6414632E-1,1.2482136E0,2.711232E0,4.411962E0,1.04823065E1,-2.3962471E-1,-1.990299E-1,-1.4562249E-1,-6.258675E-2,4.5463357E-2,1.9989972E-1,3.6605734E-1,6.405162E-1,9.933565E-1,1.5402237E0,-2.4323283E-1,-2.257867E-1,-2.0741521E-1,-1.8706311E-1,-1.5828972E-1,-1.2380135E-1,-8.157341E-2,-3.3345956E-2,1.7471425E-2,8.1750266E-2,1.5940149E-1,2.4087143E-1,3.0515814E-1,4.0421203E-1,-2.4541898E-1,-2.3853357E-1,-1.6255201E-1,-1.4433436E-1,-1.2744477E-1,-1.09694526E-1,-9.169594E-2,-6.581515E-2,-4.606897E-2,-1.9539699E-2,3.8914494E-3,3.3721615E-2,6.846233E-2,1.0662301E-1,1.4036968E-1,1.7745048E-1],"categories":[],"categories_nodes":[],"categories_segments":[],"categories_sizes":[],"default_left":[1,1,1,1,1,1,1,1,1,1,1,1,0,0,0,1,1,1,1,1,1,1,0,0,0,1,0,0,0,1,1,1,1,1,1,1,0,0,0,0,0,0,0,0,0,0,0,0,0,0,0,0,0,0,0],"id":2,"left_children":[1,3,5,7,9,11,13,15,17,19,21,23,-1,-1,-1,25,27,29,31,33,35,37,-1,-1,-1,39,-1,-1,-1,41,43,45,47,49,51,53,-1,-1,-1,-1,-1,-1,-1,-1,-1,-1,-1,-1,-1,-1,-1,-1,-1,-1,-1],"loss_changes":[4.1460645E2,1.1453604E2,1.7870059E2,1.859372E1,1.8478775E1,2.3275131E1,1.5091248E1,2.1083984E0,2.5618114E0,2.8334122E0,3.121727E0,4.349251E0,0E0,0E0,0E0,3.1036377E-1,1.2165451E-1,2.659378E-1,3.2206297E-1,3.3275038E-1,2.7189016E-1,1.7174721E-1,0E0,0E0,0E0,9.460449E-4,0E0,0E0,0E0,1.5201569E-2,5.756378E-3,5.0432682E-2,3.985226E-2,4.1135415E-2,3.996283E-2,8.411646E-3,0E0,0E0,0E0,0E0,0E0,0E0,0E0,0E0,0E0,0E0,0E0,0E0,0E0,0E0,0E0,0E0,0E0,0E0,0E0],"parents":[2147483647,0,0,1,1,2,2,3,3,4,4,5,5,6,6,7,7,8,8,9,9,10,10,11,11,15,15,16,16,17,17,18,18,19,19,20,20,21,21,25,25,29,29,30,30,31,31,32,32,33,33,34,34,35,35],"right_children":[2,4,6,8,10,12,14,16,18,20,22,24,-1,-1,-1,26,28,30,32,34,36,38,-1,-1,-1,40,-1,-1,-1,42,44,46,48,50,52,54,-1,-1,-1,-1,-1,-1,-1,-1,-1,-1,-1,-1,-1,-1,-1,-1,-1,-1,-1],"split_conditions":[2.17E0,4.85E-1,8.46E0,1.4500001E-1,1.075E0,4.4750004E0,2.8670002E1,5.5E-2,2.85E-1,7.55E-1,1.515E0,2.975E0,8.1336963E-1,1.3235886E0,3.1446922E0,2.4999999E-2,9.5E-2,2.15E-1,3.85E-1,5.95E-1,9.15E-1,1.185E0,1.9215487E-1,2.9800698E-1,4.6206713E-1,5E-3,-6.7736015E-2,-6.2224563E-2,-5.6118935E-2,1.95E-1,2.65E-1,3.45E-1,4.35E-1,5.3499997E-1,6.85E-1,8.35E-1,7.226143E-2,9.1547444E-2,1.21263616E-1,-7.36257E-2,-7.156008E-2,-4.8765607E-2,-4.330031E-2,-3.8233433E-2,-3.2908358E-2,-2.7508784E-2,-1.9744545E-2,-1.3820692E-2,-5.86191E-3,1.1674348E-3,1.0116485E-2,2.0538699E-2,3.1986903E-2,4.2110905E-2,5.3235147E-2],"split_indices":[2,2,2,2,2,2,1,2,2,2,2,2,0,0,0,2,2,2,2,2,2,2,0,0,0,2,0,0,0,2,2,2,2,2,2,2,0,0,0,0,0,0,0,0,0,0,0,0,0,0,0,0,0,0,0],"split_type":[0,0,0,0,0,0,0,0,0,0,0,0,0,0,0,0,0,0,0,0,0,0,0,0,0,0,0,0,0,0,0,0,0,0,0,0,0,0,0,0,0,0,0,0,0,0,0,0,0,0,0,0,0,0,0],"sum_hessian":[1.1333E4,1.1236E4,9.7E1,1.0529E4,7.07E2,9.1E1,6E0,8.913E3,1.616E3,5.14E2,1.93E2,7.8E1,1.3E1,5E0,1E0,7.315E3,1.598E3,1.032E3,5.84E2,3.28E2,1.86E2,1.26E2,6.7E1,4.4E1,3.4E1,5.789E3,1.526E3,9.3E2,6.68E2,6.49E2,3.83E2,3.53E2,2.31E2,1.86E2,1.42E2,9.6E1,9E1,5.2E1,7.4E1,3.916E3,1.873E3,4.89E2,1.6E2,2.98E2,8.5E1,2.12E2,1.41E2,1.19E2,1.12E2,1.02E2,8.4E1,9.5E1,4.7E1,5.1E1,4.5E1],"tree_param":{"num_deleted":"0","num_feature":"100","num_nodes":"55","size_leaf_vector":"0"}},{"base_weights":[-1.1878264E-1,-1.2402625E-1,3.8463082E0,-1.415506E-1,4.528126E-1,2.8481932E0,8.90996E0,-1.5709338E-1,-5.4292358E-3,3.2455057E-1,1.0331334E0,-1.6720946E-1,-1.2305481E-1,-4.2960685E-2,6.994839E-2,2.4490811E-1,5.33665E-1,8.4685886E-1,1.2441516E0,-1.7028806E-1,-1.5726902E-1,-1.3413963E-1,-9.901556E-2,-5.830871E-2,-1.2215964E-2,3.7432022E-2,1.14370026E-1,2.1167903E-1,3.212954E-1,4.674512E-1,6.037719E-1,-1.7181209E-1,-1.6701168E-1,-1.4068294E-1,-1.2355999E-1,-1.0346164E-1,-8.4300324E-2,-7.187331E-2,-4.5906126E-2,-2.344405E-2,-3.768726E-3,2.6376808E-2,5.9029687E-2,9.505835E-2,1.3447417E-1,1.9347957E-1,2.4166045E-1],"categories":[],"categories_nodes":[],"categories_segments":[],"categories_sizes":[],"default_left":[1,1,1,1,1,0,0,1,1,1,1,1,1,1,1,1,1,0,0,1,0,1,1,1,1,1,1,1,0,0,0,0,0,0,0,0,0,0,0,0,0,0,0,0,0,0,0],"id":3,"left_children":[1,3,5,7,9,-1,-1,11,13,15,17,19,21,23,25,27,29,-1,-1,31,-1,33,35,37,39,41,43,45,-1,-1,-1,-1,-1,-1,-1,-1,-1,-1,-1,-1,-1,-1,-1,-1,-1,-1,-1],"loss_changes":[2.3612633E2,1.14494934E2,5.043431E1,2.324437E1,2.452536E1,0E0,0E0,3.3749542E0,3.1913233E0,4.449257E0,1.3048248E0,2.0574951E-1,5.8974075E-1,3.546064E-1,5.3738034E-1,4.421835E-1,6.5919876E-2,0E0,0E0,2.1362305E-4,0E0,8.963966E-2,3.8253784E-2,8.115506E-2,2.381292E-2,5.0494164E-2,4.8559904E-2,3.127098E-2,0E0,0E0,0E0,0E0,0E0,0E0,0E0,0E0,0E0,0E0,0E0,0E0,0E0,0E0,0E0,0E0,0E0,0E0,0E0],"parents":[2147483647,0,0,1,1,2,2,3,3,4,4,7,7,8,8,9,9,10,10,11,11,12,12,13,13,14,14,15,15,16,16,19,19,21,21,22,22,23,23,24,24,25,25,26,26,27,27],"right_children":[2,4,6,8,10,-1,-1,12,14,16,18,20,22,24,26,28,30,-1,-1,32,-1,34,36,38,40,42,44,46,-1,-1,-1,-1,-1,-1,-1,-1,-1,-1,-1,-1,-1,-1,-1,-1,-1,-1,-1],"split_conditions":[5.6499996E0,9.75E-1,2.8670002E1,2.65E-1,2.5149999E0,8.54458E-1,2.672988E0,6.5E-2,5.25E-1,1.665E0,3.43E0,2.4999999E-2,1.6499999E-1,4.05E-1,7.05E-1,1.275E0,2.045E0,2.5405768E-1,3.7324548E-1,5E-3,-4.718071E-2,1.14999995E-1,2.35E-1,3.25E-1,4.5499998E-1,6.35E-1,8.45E-1,1.145E0,9.638863E-2,1.4023536E-1,1.8113159E-1,-5.1543627E-2,-5.0103504E-2,-4.2204883E-2,-3.7068E-2,-3.1038493E-2,-2.5290098E-2,-2.1561993E-2,-1.37718385E-2,-7.0332154E-3,-1.1306178E-3,7.913043E-3,1.7708907E-2,2.8517507E-2,4.0342253E-2,5.804387E-2,7.2498135E-2],"split_indices":[2,2,1,2,2,0,0,2,2,2,2,2,2,2,2,2,2,0,0,2,0,2,2,2,2,2,2,2,0,0,0,0,0,0,0,0,0,0,0,0,0,0,0,0,0,0,0],"split_type":[0,0,0,0,0,0,0,0,0,0,0,0,0,0,0,0,0,0,0,0,0,0,0,0,0,0,0,0,0,0,0,0,0,0,0,0,0,0,0,0,0,0,0,0,0,0,0],"sum_hessian":[1.1333E4,1.1319E4,1.4E1,1.0986E4,3.33E2,1.3E1,1E0,9.86E3,1.126E3,2.74E2,5.9E1,7.598E3,2.262E3,7.52E2,3.74E2,2E2,7.4E1,3.4E1,2.5E1,5.789E3,1.809E3,1.545E3,7.17E2,5.01E2,2.51E2,2.17E2,1.57E2,1.42E2,5.8E1,4.2E1,3.2E1,3.916E3,1.873E3,9.47E2,5.98E2,5.46E2,1.71E2,2.37E2,2.64E2,1.07E2,1.44E2,1.45E2,7.2E1,8.3E1,7.4E1,9.3E1,4.9E1],"tree_param":{"num_deleted":"0","num_feature":"100","num_nodes":"47","size_leaf_vector":"0"}},{"base_weights":[-8.2753494E-2,-8.5706085E-2,4.108091E0,-9.574807E-2,4.9717495E-1,2.5311134E0,7.5734663E0,-1.0775172E-1,3.861636E-2,3.4765202E-1,9.1486704E-1,-1.1502288E-1,-7.0655696E-2,3.158868E-3,1.2317735E-1,2.5363386E-1,4.3942207E-1,7.7998143E-1,1.3764112E0,-1.185699E-1,-1.04269415E-1,-8.174989E-2,-5.346274E-2,-1.0875173E-2,3.8920604E-2,9.030125E-2,1.5587024E-1,2.292127E-1,2.91354E-1,3.5705692E-1,4.7642362E-1,-1.1980275E-1,-1.1438938E-1,-1.0879417E-1,-9.8522566E-2,-8.655388E-2,-7.470385E-2,-5.892604E-2,-3.9909627E-2,-2.0442016E-2,4.1958704E-3,2.7749805E-2,4.8638716E-2,7.950247E-2,1.0245215E-1,1.4208719E-1,1.7425402E-1],"categories":[],"categories_nodes":[],"categories_segments":[],"categories_sizes":[],"default_left":[1,1,1,1,1,0,0,1,1,1,1,1,1,1,1,1,1,0,0,1,1,1,1,1,1,1,1,0,0,0,0,0,0,0,0,0,0,0,0,0,0,0,0,0,0,0,0],"id":4,"left_children":[1,3,5,7,9,-1,-1,11,13,15,17,19,21,23,25,27,29,-1,-1,31,33,35,37,39,41,43,45,-1,-1,-1,-1,-1,-1,-1,-1,-1,-1,-1,-1,-1,-1,-1,-1,-1,-1,-1,-1],"loss_changes":[1.405973E2,6.634768E1,2.454924E1,1.7965012E1,1.1673218E1,0E0,0E0,2.7493362E0,2.7400756E0,1.1223564E0,2.0392075E0,3.1360626E-1,3.156948E-1,3.241369E-1,2.7612495E-1,4.6348572E-4,4.627323E-2,0E0,0E0,1.9378662E-2,4.4614792E-2,2.7992249E-2,4.6591878E-2,6.698635E-2,1.840803E-2,9.831309E-3,9.194374E-3,0E0,0E0,0E0,0E0,0E0,0E0,0E0,0E0,0E0,0E0,0E0,0E0,0E0,0E0,0E0,0E0,0E0,0E0,0E0,0E0],"parents":[2147483647,0,0,1,1,2,2,3,3,4,4,7,7,8,8,9,9,10,10,11,11,12,12,13,13,14,14,15,15,16,16,19,19,20,20,21,21,22,22,23,23,24,24,25,25,26,26],"right_children":[2,4,6,8,10,-1,-1,12,14,16,18,20,22,24,26,28,30,-1,-1,32,34,36,38,40,42,44,46,-1,-1,-1,-1,-1,-1,-1,-1,-1,-1,-1,-1,-1,-1,-1,-1,-1,-1,-1,-1],"split_conditions":[7.8E0,1.305E0,2.8670002E1,3.65E-1,2.875E0,7.59334E-1,2.27204E0,1.14999995E-1,7.65E-1,1.895E0,5.205E0,3.5E-2,2.15E-1,5.75E-1,9.95E-1,1.625E0,2.1E0,2.3399444E-1,4.1292337E-1,1.5E-2,6.5E-2,1.6499999E-1,3.05E-1,4.75E-1,6.45E-1,8.95E-1,1.155E0,6.8763815E-2,8.74062E-2,1.0711708E-1,1.429271E-1,-3.5940826E-2,-3.4316815E-2,-3.263825E-2,-2.9556772E-2,-2.5966166E-2,-2.2411156E-2,-1.7677812E-2,-1.1972888E-2,-6.132605E-3,1.2587612E-3,8.324942E-3,1.4591616E-2,2.3850743E-2,3.0735647E-2,4.2626157E-2,5.2276205E-2],"split_indices":[2,2,1,2,2,0,0,2,2,2,2,2,2,2,2,2,2,0,0,2,2,2,2,2,2,2,2,0,0,0,0,0,0,0,0,0,0,0,0,0,0,0,0,0,0,0,0],"split_type":[0,0,0,0,0,0,0,0,0,0,0,0,0,0,0,0,0,0,0,0,0,0,0,0,0,0,0,0,0,0,0,0,0,0,0,0,0,0,0,0,0,0,0,0,0,0,0],"sum_hessian":[1.1333E4,1.1326E4,7E0,1.1135E4,1.91E2,6E0,1E0,1.0222E4,9.13E2,1.42E2,4.9E1,8.545E3,1.677E3,6.44E2,2.69E2,7.2E1,7E1,4E1,9E0,6.418E3,2.127E3,1.017E3,6.6E2,4.63E2,1.81E2,1.36E2,1.33E2,4.8E1,2.4E1,2.5E1,4.5E1,4.935E3,1.483E3,1.18E3,9.47E2,5.98E2,4.19E2,4.68E2,1.92E2,2.83E2,1.8E2,8.6E1,9.5E1,7.6E1,6E1,8.1E1,5.2E1],"tree_param":{"num_deleted":"0","num_feature":"100","num_nodes":"47","size_leaf_vector":"0"}},{"base_weights":[-5.757086E-2,-5.9059337E-2,5.5840917E0,-6.591798E-2,4.7427738E-1,-7.448336E-2,4.7078658E-2,3.7664407E-1,1.288814E0,-8.001095E-2,-4.375622E-2,1.7461017E-2,1.1475626E-1,2.8223082E-1,5.3736895E-1,7.8243876E-1,1.4637578E0,-8.230675E-2,-6.875274E-2,-5.149526E-2,-2.6614029E-2,2.6404718E-3,4.219707E-2,9.635433E-2,1.5720093E-1,2.3897897E-1,3.1979272E-1,4.4558585E-1,6.7312825E-1,-8.352411E-2,-7.763693E-2,-7.058513E-2,-6.355936E-2,-5.6866605E-2,-4.5105208E-2,-3.0791435E-2,-1.9044036E-2,-4.863904E-3,1.16575835E-2,3.2659136E-2,5.8082238E-2,8.112605E-2,1.1208508E-1,1.3279721E-1,1.7279388E-1],"categories":[],"categories_nodes":[],"categories_segments":[],"categories_sizes":[],"default_left":[1,1,0,1,1,1,1,1,1,1,1,1,1,1,1,0,0,1,1,1,1,1,1,1,1,0,0,0,0,0,0,0,0,0,0,0,0,0,0,0,0,0,0,0,0],"id":5,"left_children":[1,3,-1,5,7,9,11,13,15,17,19,21,23,25,27,-1,-1,29,31,33,35,37,39,41,43,-1,-1,-1,-1,-1,-1,-1,-1,-1,-1,-1,-1,-1,-1,-1,-1,-1,-1,-1,-1],"loss_changes":[9.550685E1,4.1483368E1,0E0,1.0832874E1,1.0966301E1,1.7630768E0,1.5795081E0,1.8210297E0,1.8350792E-1,2.2215271E-1,2.0930004E-1,2.0151961E-1,1.723082E-1,6.0044765E-2,2.857027E-1,0E0,0E0,3.5102844E-2,9.778976E-3,3.4950256E-2,1.5098572E-2,2.3402091E-2,2.9314458E-2,3.1630874E-2,4.0706396E-3,0E0,0E0,0E0,0E0,0E0,0E0,0E0,0E0,0E0,0E0,0E0,0E0,0E0,0E0,0E0,0E0,0E0,0E0,0E0,0E0],"parents":[2147483647,0,0,1,1,3,3,4,4,5,5,6,6,7,7,8,8,9,9,10,10,11,11,12,12,13,13,14,14,17,17,18,18,19,19,20,20,21,21,22,22,23,23,24,24],"right_children":[2,4,-1,6,8,10,12,14,16,18,20,22,24,26,28,-1,-1,30,32,34,36,38,40,42,44,-1,-1,-1,-1,-1,-1,-1,-1,-1,-1,-1,-1,-1,-1,-1,-1,-1,-1,-1,-1],"split_conditions":[1.1945E1,1.7E0,1.6752275E0,4.25E-1,5.205E0,1.3499999E-1,9.05E-1,2.795E0,6.135E0,5.5E-2,2.75E-1,6.25E-1,1.255E0,2.08E0,3.72E0,2.3473163E-1,4.3912736E-1,2.4999999E-2,1.05000004E-1,1.95E-1,3.65E-1,5.15E-1,7.75E-1,1.065E0,1.365E0,7.1693696E-2,9.593782E-2,1.3367575E-1,2.0193848E-1,-2.5057234E-2,-2.329108E-2,-2.1175541E-2,-1.9067809E-2,-1.7059982E-2,-1.3531563E-2,-9.237431E-3,-5.713211E-3,-1.4591712E-3,3.4972753E-3,9.797741E-3,1.7424673E-2,2.4337815E-2,3.3625524E-2,3.9839163E-2,5.1838167E-2],"split_indices":[2,2,0,2,2,2,2,2,2,2,2,2,2,2,2,0,0,2,2,2,2,2,2,2,2,0,0,0,0,0,0,0,0,0,0,0,0,0,0,0,0,0,0,0,0],"split_type":[0,0,0,0,0,0,0,0,0,0,0,0,0,0,0,0,0,0,0,0,0,0,0,0,0,0,0,0,0,0,0,0,0,0,0,0,0,0,0,0,0,0,0,0,0],"sum_hessian":[1.1333E4,1.1331E4,2E0,1.1188E4,1.43E2,1.04E4,7.88E2,1.29E2,1.4E1,8.813E3,1.587E3,5.49E2,2.39E2,8.3E1,4.6E1,5E0,9E0,7.315E3,1.498E3,1.092E3,4.95E2,3.44E2,2.05E2,1.69E2,7E1,4.2E1,4.1E1,3E1,1.6E1,5.789E3,1.526E3,1.098E3,4E2,5.89E2,5.03E2,3.17E2,1.78E2,1.88E2,1.56E2,1.3E2,7.5E1,8.9E1,8E1,3.1E1,3.9E1],"tree_param":{"num_deleted":"0","num_feature":"100","num_nodes":"45","size_leaf_vector":"0"}},{"base_weights":[-4.0043987E-2,-4.1035756E-2,5.5998325E0,-4.586397E-2,3.786631E-1,-5.2151244E-2,3.5427727E-2,2.974258E-1,1.1459413E0,-5.5880934E-2,-2.9773148E-2,1.3912878E-2,8.981438E-2,2.455368E-1,5.1268977E-1,7.7116615E-1,1.3921887E0,-5.762133E-2,-4.788305E-2,-3.683668E-2,-2.0659728E-2,4.713112E-3,3.876921E-2,7.626508E-2,1.2821291E-1,1.9858693E-1,3.1026772E-1,-5.929913E-2,-5.567146E-2,-4.997089E-2,-4.4905975E-2,-3.8618695E-2,-3.2887746E-2,-2.5886266E-2,-1.572772E-2,-1.8313428E-3,1.4181002E-2,3.27556E-2,4.4513624E-2,6.268069E-2,8.574446E-2],"categories":[],"categories_nodes":[],"categories_segments":[],"categories_sizes":[],"default_left":[1,1,0,1,1,1,1,1,1,1,1,1,1,1,0,0,0,1,1,1,1,1,1,1,0,0,0,0,0,0,0,0,0,0,0,0,0,0,0,0,0],"id":6,"left_children":[1,3,-1,5,7,9,11,13,15,17,19,21,23,25,-1,-1,-1,27,29,31,33,35,37,39,-1,-1,-1,-1,-1,-1,-1,-1,-1,-1,-1,-1,-1,-1,-1,-1,-1],"loss_changes":[6.3625954E1,2.2982504E1,0E0,5.72876E0,7.6999454E0,8.66436E-1,9.4069755E-1,1.1921577E0,3.3841133E-2,1.2132263E-1,9.50259E-2,1.3198994E-1,1.0884416E-1,2.3317814E-1,0E0,0E0,0E0,2.063179E-2,7.694721E-3,4.619956E-3,1.6399711E-2,2.6235975E-2,3.9308965E-3,1.6645432E-2,0E0,0E0,0E0,0E0,0E0,0E0,0E0,0E0,0E0,0E0,0E0,0E0,0E0,0E0,0E0,0E0,0E0],"parents":[2147483647,0,0,1,1,3,3,4,4,5,5,6,6,7,7,8,8,9,9,10,10,11,11,12,12,13,13,17,17,18,18,19,19,20,20,21,21,22,22,23,23],"right_children":[2,4,-1,6,8,10,12,14,16,18,20,22,24,26,-1,-1,-1,28,30,32,34,36,38,40,-1,-1,-1,-1,-1,-1,-1,-1,-1,-1,-1,-1,-1,-1,-1,-1,-1],"split_conditions":[3.5285E1,1.88E0,1.6799499E0,4.25E-1,5.94E0,1.4500001E-1,9.6500003E-1,3.66E0,8.46E0,5.5E-2,2.45E-1,6.95E-1,1.355E0,2.585E0,1.5380694E-1,2.3134986E-1,4.1765663E-1,5E-3,9.5E-2,2.05E-1,3.15E-1,5.45E-1,8.25E-1,1.095E0,3.8463876E-2,5.957608E-2,9.308032E-2,-1.778974E-2,-1.670144E-2,-1.4991268E-2,-1.3471793E-2,-1.1585609E-2,-9.866324E-3,-7.76588E-3,-4.718316E-3,-5.4940284E-4,4.2543006E-3,9.82668E-3,1.3354088E-2,1.8804207E-2,2.572334E-2],"split_indices":[1,2,0,2,2,2,2,2,2,2,2,2,2,2,0,0,0,2,2,2,2,2,2,2,0,0,0,0,0,0,0,0,0,0,0,0,0,0,0,0,0],"split_type":[0,0,0,0,0,0,0,0,0,0,0,0,0,0,0,0,0,0,0,0,0,0,0,0,0,0,0,0,0,0,0,0,0,0,0,0,0,0,0,0,0],"sum_hessian":[1.1333E4,1.1332E4,1E0,1.1204E4,1.28E2,1.04E4,8.04E2,1.17E2,1.1E1,8.913E3,1.487E3,5.77E2,2.27E2,9.6E1,2.1E1,6E0,5E0,7.315E3,1.598E3,8.36E2,6.51E2,4.22E2,1.55E2,1.7E2,5.7E1,5.8E1,3.8E1,3.916E3,3.399E3,9.3E2,6.68E2,5.7E2,2.66E2,3.14E2,3.37E2,2.5E2,1.72E2,7.9E1,7.6E1,7.3E1,9.7E1],"tree_param":{"num_deleted":"0","num_feature":"100","num_nodes":"41","size_leaf_vector":"0"}},{"base_weights":[-2.7797122E-2,-2.8639574E-2,4.759857E0,-3.133847E-2,3.6119884E-1,-3.5505082E-2,4.8910215E-2,2.6714325E-1,8.562426E-1,-3.8741555E-2,-1.4895446E-2,3.1045573E-2,1.0439148E-1,2.1716677E-1,3.9112556E-1,5.7286614E-1,1.0441413E0,-4.0208798E-2,-3.1960756E-2,-2.0709177E-2,-3.9623887E-3,2.1718498E-2,5.253981E-2,8.3722875E-2,1.3384396E-1,-4.1036587E-2,-3.753857E-2,-3.3940393E-2,-2.998789E-2,-2.4494762E-2,-1.7360613E-2,-8.090989E-3,9.097083E-4,1.3084416E-2,2.8779503E-2,4.888376E-2,6.0423613E-2,7.248201E-2,9.425813E-2,1.3857745E-1,8.2265176E-2],"categories":[],"categories_nodes":[],"categories_segments":[],"categories_sizes":[],"default_left":[1,1,0,1,1,1,1,1,1,1,1,1,1,0,0,0,0,1,1,1,1,1,1,1,1,0,0,0,0,0,0,0,0,0,0,0,0,0,0,0,0],"id":7,"left_children":[1,3,-1,5,7,9,11,13,15,17,19,21,23,-1,-1,-1,-1,25,27,29,31,33,35,37,39,-1,-1,-1,-1,-1,-1,-1,-1,-1,-1,-1,-1,-1,-1,-1,-1],"loss_changes":[4.585054E1,1.1935139E1,0E0,3.7653522E0,3.4030666E0,7.132063E-1,5.478401E-1,3.302064E-1,4.079914E-2,9.072399E-2,9.233686E-2,8.346078E-2,7.097435E-2,0E0,0E0,0E0,0E0,1.5256882E-2,5.426407E-3,1.1604577E-2,1.0185517E-2,1.7669156E-2,7.068515E-4,2.8789043E-3,1.7838478E-3,0E0,0E0,0E0,0E0,0E0,0E0,0E0,0E0,0E0,0E0,0E0,0E0,0E0,0E0,0E0,0E0],"parents":[2147483647,0,0,1,1,3,3,4,4,5,5,6,6,7,7,8,8,9,9,10,10,11,11,12,12,17,17,18,18,19,19,20,20,21,21,22,22,23,23,24,24],"right_children":[2,4,-1,6,8,10,12,14,16,18,20,22,24,-1,-1,-1,-1,26,28,30,32,34,36,38,40,-1,-1,-1,-1,-1,-1,-1,-1,-1,-1,-1,-1,-1,-1,-1,-1],"split_conditions":[3.5285E1,2.4450002E0,1.4279572E0,5.85E-1,5.94E0,1.7500001E-1,1.265E0,3.815E0,8.46E0,6.5E-2,3.5500002E-1,9.85E-1,1.86E0,6.515003E-2,1.17337674E-1,1.7185985E-1,3.132424E-1,2.4999999E-2,1.05000004E-1,2.35E-1,4.5499998E-1,7.1500003E-1,1.165E0,1.485E0,2.335E0,-1.2310977E-2,-1.1261571E-2,-1.0182118E-2,-8.996367E-3,-7.348429E-3,-5.208184E-3,-2.4272967E-3,2.729125E-4,3.925325E-3,8.633851E-3,1.4665128E-2,1.8127084E-2,2.1744605E-2,2.827744E-2,4.1573234E-2,2.4679555E-2],"split_indices":[1,2,0,2,2,2,2,2,2,2,2,2,2,0,0,0,0,2,2,2,2,2,2,2,2,0,0,0,0,0,0,0,0,0,0,0,0,0,0,0,0],"split_type":[0,0,0,0,0,0,0,0,0,0,0,0,0,0,0,0,0,0,0,0,0,0,0,0,0,0,0,0,0,0,0,0,0,0,0,0,0,0,0,0,0],"sum_hessian":[1.1333E4,1.1332E4,1E0,1.1255E4,7.7E1,1.07E4,5.55E2,6.6E1,1.1E1,9.247E3,1.453E3,4.21E2,1.34E2,4.9E1,1.7E1,6E0,5E0,7.598E3,1.649E3,9.48E2,5.05E2,2.95E2,1.26E2,8.1E1,5.3E1,5.789E3,1.809E3,8.15E2,8.34E2,4.42E2,5.06E2,2.73E2,2.32E2,1.34E2,1.61E2,9.1E1,3.5E1,4.3E1,3.8E1,4.7E1,6E0],"tree_param":{"num_deleted":"0","num_feature":"100","num_nodes":"41","size_leaf_vector":"0"}},{"base_weights":[-1.9263903E-2,-1.9979602E-2,4.0458784E0,-2.2112513E-2,2.380422E-1,-2.515639E-2,2.7280658E-2,1.6786677E-1,5.917633E-1,-2.731866E-2,-1.2605192E-2,1.611438E-2,6.305286E-2,1.3239677E-1,2.3127577E-1,4.30408E-1,8.283924E-1,-2.8560616E-2,-2.4258431E-2,-1.641072E-2,-5.7749012E-3,8.185559E-3,2.8643053E-2,5.091127E-2,8.303471E-2,1.3503724E-1,6.629169E-2,2.355959E-1,5.9476137E-2,-2.9206097E-2,-2.7539078E-2,-2.5669165E-2,-2.2481756E-2,-1.7755857E-2,-1.3770788E-2,-8.854451E-3,-2.9083253E-3,5.1622638E-3,1.4123325E-2,2.3409976E-2,3.529641E-2,4.589572E-2,5.9149943E-2,1.5648127E-2,7.795683E-2,1.0039735E-1,2.4267922E-1],"categories":[],"categories_nodes":[],"categories_segments":[],"categories_sizes":[],"default_left":[1,1,0,1,1,1,1,1,1,1,1,1,1,1,1,0,0,1,1,1,1,1,1,1,0,0,1,1,0,0,0,0,0,0,0,0,0,0,0,0,0,0,0,0,0,0,0],"id":8,"left_children":[1,3,-1,5,7,9,11,13,15,17,19,21,23,25,27,-1,-1,29,31,33,35,37,39,41,-1,-1,43,45,-1,-1,-1,-1,-1,-1,-1,-1,-1,-1,-1,-1,-1,-1,-1,-1,-1,-1,-1],"loss_changes":[3.30562E1,6.2422376E0,0E0,1.6907349E0,2.209158E0,2.8703117E-1,2.5981984E-1,1.4706016E-1,2.1617365E-1,3.3634186E-2,4.0402114E-2,4.9335003E-2,3.337741E-2,2.9927492E-4,6.0271025E-3,0E0,0E0,3.4284592E-3,5.9746504E-3,3.3065677E-3,4.9089678E-3,5.4382384E-3,5.8934838E-3,1.3760924E-3,0E0,0E0,1.1431798E-3,5.3465366E-4,0E0,0E0,0E0,0E0,0E0,0E0,0E0,0E0,0E0,0E0,0E0,0E0,0E0,0E0,0E0,0E0,0E0,0E0,0E0],"parents":[2147483647,0,0,1,1,3,3,4,4,5,5,6,6,7,7,8,8,9,9,10,10,11,11,12,12,13,13,14,14,17,17,18,18,19,19,20,20,21,21,22,22,23,23,26,26,27,27],"right_children":[2,4,-1,6,8,10,12,14,16,18,20,22,24,26,28,-1,-1,30,32,34,36,38,40,42,-1,-1,44,46,-1,-1,-1,-1,-1,-1,-1,-1,-1,-1,-1,-1,-1,-1,-1,-1,-1,-1,-1],"split_conditions":[3.5285E1,2.24E0,1.2137636E0,5.15E-1,5.425E0,1.55E-1,1.165E0,3.335E0,9.059999E0,3.5E-2,3.05E-1,8.05E-1,1.635E0,5E-1,5E-1,1.291224E-1,2.4851772E-1,5E-3,7.5E-2,2.35E-1,3.85E-1,6.65E-1,1.005E0,1.385E0,2.4910415E-2,4.0511176E-2,1.997E3,1.989E3,1.7842842E-2,-8.76183E-3,-8.261723E-3,-7.7007497E-3,-6.7445273E-3,-5.326757E-3,-4.1312366E-3,-2.6563352E-3,-8.724976E-4,1.5486792E-3,4.2369976E-3,7.022993E-3,1.05889235E-2,1.3768717E-2,1.7744984E-2,4.694438E-3,2.338705E-2,3.0119205E-2,7.280377E-2],"split_indices":[1,2,0,2,2,2,2,2,2,2,2,2,2,21,22,0,0,2,2,2,2,2,2,2,0,0,0,0,0,0,0,0,0,0,0,0,0,0,0,0,0,0,0,0,0,0,0],"split_type":[0,0,0,0,0,0,0,0,0,0,0,0,0,0,0,0,0,0,0,0,0,0,0,0,0,0,0,0,0,0,0,0,0,0,0,0,0,0,0,0,0,0,0,0,0,0,0],"sum_hessian":[1.1333E4,1.1332E4,1E0,1.124E4,9.2E1,1.0588E4,6.52E2,7.8E1,1.4E1,9.031E3,1.557E3,4.98E2,1.54E2,5.2E1,2.6E1,1E1,4E0,6.418E3,2.613E3,9.99E2,5.58E2,3.06E2,1.92E2,9.8E1,5.6E1,4.9E1,3E0,2.5E1,1E0,3.916E3,2.502E3,1.449E3,1.164E3,6.58E2,3.41E2,2.68E2,2.9E2,2.04E2,1.02E2,1.1E2,8.2E1,6.5E1,3.3E1,1E0,2E0,2E0,2.3E1],"tree_param":{"num_deleted":"0","num_feature":"100","num_nodes":"47","size_leaf_vector":"0"}},{"base_weights":[-1.33244945E-2,-1.3932569E-2,3.4389963E0,-1.4805067E-2,3.2667148E-1,-1.6895879E-2,4.406684E-2,2.1511096E-1,5.171254E-1,-1.8459987E-2,-8.902185E-4,2.8909843E-2,8.986822E-2,-1.9498862E-2,-1.3412938E-2,-4.32446E-3,6.609662E-3,2.2776093E-2,4.2713318E-2,6.9958836E-2,1.12780735E-1,-2.0129198E-2,-1.800552E-2,-1.4866089E-2,-1.1308612E-2,-6.4248852E-3,-1.5977997E-3,3.9941203E-3,1.03144515E-2,1.7601E-2,2.6442466E-2,7.968227E-3,4.3420468E-2,7.19353E-2,2.7269155E-2,1.15435004E-1,3.8912218E-2],"categories":[],"categories_nodes":[],"categories_segments":[],"categories_sizes":[],"default_left":[1,1,0,1,1,1,1,0,0,1,1,1,1,1,1,1,1,1,1,1,1,0,0,0,0,0,0,0,0,0,0,0,0,0,0,0,0],"id":9,"left_children":[1,3,-1,5,7,9,11,-1,-1,13,15,17,19,21,23,25,27,29,31,33,35,-1,-1,-1,-1,-1,-1,-1,-1,-1,-1,-1,-1,-1,-1,-1,-1],"loss_changes":[2.3841051E1,3.3727343E0,0E0,1.3922782E0,5.0492764E-1,2.7331114E-1,2.6675576E-1,0E0,0E0,5.188799E-2,2.508956E-2,2.3834601E-2,3.590268E-2,7.399559E-3,5.033374E-3,3.8154693E-3,2.9239524E-3,3.4242198E-3,1.8407404E-3,2.59462E-3,3.9390326E-3,0E0,0E0,0E0,0E0,0E0,0E0,0E0,0E0,0E0,0E0,0E0,0E0,0E0,0E0,0E0,0E0],"parents":[2147483647,0,0,1,1,3,3,4,4,5,5,6,6,9,9,10,10,11,11,12,12,13,13,14,14,15,15,16,16,17,17,18,18,19,19,20,20],"right_children":[2,4,-1,6,8,10,12,-1,-1,14,16,18,20,22,24,26,28,30,32,34,36,-1,-1,-1,-1,-1,-1,-1,-1,-1,-1,-1,-1,-1,-1,-1,-1],"split_conditions":[3.5285E1,3.815E0,1.031699E0,8.55E-1,6.315E0,2.85E-1,1.91E0,6.453329E-2,1.5513763E-1,9.5E-2,5.25E-1,1.265E0,2.585E0,2.4999999E-2,1.7500001E-1,3.9499998E-1,6.65E-1,1.005E0,3E-2,6.395E0,5E-1,-6.03876E-3,-5.401656E-3,-4.459827E-3,-3.392584E-3,-1.9274657E-3,-4.7933994E-4,1.1982361E-3,3.0943356E-3,5.2803E-3,7.93274E-3,2.3904683E-3,1.3026141E-2,2.1580592E-2,8.180747E-3,3.4630504E-2,1.1673666E-2],"split_indices":[1,2,0,2,2,2,2,0,0,2,2,2,2,2,2,2,2,2,4,1,22,0,0,0,0,0,0,0,0,0,0,0,0,0,0,0,0],"split_type":[0,0,0,0,0,0,0,0,0,0,0,0,0,0,0,0,0,0,0,0,0,0,0,0,0,0,0,0,0,0,0,0,0,0,0,0,0],"sum_hessian":[1.1333E4,1.1332E4,1E0,1.1304E4,2.8E1,1.0917E4,3.87E2,1.9E1,9E0,9.945E3,9.72E2,2.92E2,9.5E1,8.245E3,1.7E3,6.67E2,3.05E2,2.04E2,8.8E1,5.3E1,4.2E1,5.789E3,2.456E3,1.002E3,6.98E2,3.76E2,2.91E2,1.8E2,1.25E2,8.7E1,1.17E2,2E0,8.6E1,5E1,3E0,4E1,2E0],"tree_param":{"num_deleted":"0","num_feature":"100","num_nodes":"37","size_leaf_vector":"0"}},{"base_weights":[-9.209037E-3,-9.725714E-3,2.9231472E0,-1.0344915E-2,2.4064644E-1,-1.182871E-2,3.13271E-2,1.7544842E-1,5.054676E-1,-1.3047159E-2,-1.6561628E-3,2.154859E-2,6.882724E-2,1.2533933E-1,2.1511257E-1,-1.3831714E-2,-1.0270726E-2,-4.363679E-3,3.784007E-3,1.6876804E-2,3.5710707E-2,5.8151208E-2,9.275691E-2,1.3273625E-1,1.8288136E-2,-1.4409285E-2,-1.3213692E-2,-1.1250168E-2,-8.718497E-3,-5.3928215E-3,-1.9050918E-3,6.934089E-4,6.205103E-3,1.3610991E-2,2.0790562E-2,1.0820508E-2,3.7311137E-2,5.9049226E-2,3.4821033E-3],"categories":[],"categories_nodes":[],"categories_segments":[],"categories_sizes":[],"default_left":[1,1,0,1,1,1,1,1,0,1,1,1,1,1,0,1,1,1,1,1,1,1,0,0,0,0,0,0,0,0,0,0,0,0,0,0,0,0,0],"id":10,"left_children":[1,3,-1,5,7,9,11,13,-1,15,17,19,21,23,-1,25,27,29,31,33,35,37,-1,-1,-1,-1,-1,-1,-1,-1,-1,-1,-1,-1,-1,-1,-1,-1,-1],"loss_changes":[1.7200367E1,1.7594543E0,0E0,6.994512E-1,3.9475918E-1,1.353041E-1,1.4116141E-1,2.073878E-2,0E0,2.1095991E-2,1.7235119E-2,1.9907668E-2,1.5043974E-2,7.8665465E-3,0E0,2.5219917E-3,3.1736344E-3,1.9658403E-3,2.9064417E-3,2.7206913E-3,2.6237294E-3,2.6418269E-3,0E0,0E0,0E0,0E0,0E0,0E0,0E0,0E0,0E0,0E0,0E0,0E0,0E0,0E0,0E0,0E0,0E0],"parents":[2147483647,0,0,1,1,3,3,4,4,5,5,6,6,7,7,9,9,10,10,11,11,12,12,13,13,15,15,16,16,17,17,18,18,19,19,20,20,21,21],"right_children":[2,4,-1,6,8,10,12,14,-1,16,18,20,22,24,-1,26,28,30,32,34,36,38,-1,-1,-1,-1,-1,-1,-1,-1,-1,-1,-1,-1,-1,-1,-1,-1,-1],"split_conditions":[3.5285E1,3.885E0,8.769442E-1,8.55E-1,9.059999E0,2.45E-1,2.03E0,5.205E0,1.5164028E-1,6.5E-2,4.85E-1,1.385E0,3.085E0,5E-1,6.453377E-2,5E-3,1.4500001E-1,3.85E-1,5.85E-1,1.085E0,1.1E-1,5E-1,2.7827075E-2,3.9820876E-2,5.486441E-3,-4.322786E-3,-3.964108E-3,-3.3750506E-3,-2.6155491E-3,-1.6178465E-3,-5.715276E-4,2.0802267E-4,1.8615309E-3,4.083297E-3,6.237169E-3,3.2461525E-3,1.1193342E-2,1.7714769E-2,1.044631E-3],"split_indices":[1,2,0,2,2,2,2,2,0,2,2,2,2,22,0,2,2,2,2,2,4,97,0,0,0,0,0,0,0,0,0,0,0,0,0,0,0,0,0],"split_type":[0,0,0,0,0,0,0,0,0,0,0,0,0,0,0,0,0,0,0,0,0,0,0,0,0,0,0,0,0,0,0,0,0,0,0,0,0,0,0],"sum_hessian":[1.1333E4,1.1332E4,1E0,1.1305E4,2.7E1,1.0917E4,3.88E2,2.3E1,4E0,9.749E3,1.168E3,3.09E2,7.9E1,1.2E1,1.1E1,7.598E3,2.151E3,7.8E2,3.88E2,2.34E2,7.5E1,5.7E1,2.2E1,1.1E1,1E0,3.916E3,3.682E3,1.315E3,8.36E2,5.49E2,2.31E2,1.71E2,2.17E2,1.3E2,1.04E2,5E0,7E1,5.6E1,1E0],"tree_param":{"num_deleted":"0","num_feature":"100","num_nodes":"39","size_leaf_vector":"0"}},{"base_weights":[-6.3408557E-3,-6.7799003E-3,2.4846754E0,-7.18493E-3,2.0178732E-1,-8.220059E-3,2.5163399E-2,1.3991904E-1,3.8415566E-1,-9.056469E-3,-3.209209E-5,1.7276037E-2,5.6025162E-2,1.4390244E-1,3.6100626E-2,-9.515248E-3,-6.251484E-3,-1.7058215E-3,4.7975704E-3,1.326786E-2,2.7537478E-2,4.4598576E-2,7.103613E-2,9.243761E-2,1.6357075E-1,-1.0004889E-2,-8.843307E-3,-6.8506026E-3,-5.295059E-3,-2.7621302E-3,5.9459726E-5,2.9759218E-3,6.3637504E-3,1.12543795E-2,1.6311284E-2,3.271389E-3,2.880495E-2,6.473216E-2,3.814712E-2,7.9386674E-2,4.365863E-2,1.0266224E-1,1.5544891E-2,1.8005848E-1,5.958398E-2],"categories":[],"categories_nodes":[],"categories_segments":[],"categories_sizes":[],"default_left":[1,1,0,1,1,1,1,1,0,1,1,1,1,1,0,1,1,1,1,1,1,1,1,1,1,0,0,0,0,0,0,0,0,0,0,0,0,0,0,0,0,0,0,0,0],"id":11,"left_children":[1,3,-1,5,7,9,11,13,-1,15,17,19,21,23,-1,25,27,29,31,33,35,37,39,41,43,-1,-1,-1,-1,-1,-1,-1,-1,-1,-1,-1,-1,-1,-1,-1,-1,-1,-1,-1,-1],"loss_changes":[1.2412469E1,9.588161E-1,0E0,3.7898546E-1,1.9447124E-1,7.5073004E-2,8.447178E-2,2.2489429E-3,0E0,1.2739778E-2,8.229152E-3,1.1192076E-2,9.010106E-3,2.087772E-3,0E0,2.723217E-3,7.66512E-4,1.4098638E-3,7.285555E-4,1.0665134E-3,2.304785E-3,3.1159595E-3,3.1639785E-3,3.907528E-3,8.130968E-3,0E0,0E0,0E0,0E0,0E0,0E0,0E0,0E0,0E0,0E0,0E0,0E0,0E0,0E0,0E0,0E0,0E0,0E0,0E0,0E0],"parents":[2147483647,0,0,1,1,3,3,4,4,5,5,6,6,7,7,9,9,10,10,11,11,12,12,13,13,15,15,16,16,17,17,18,18,19,19,20,20,21,21,22,22,23,23,24,24],"right_children":[2,4,-1,6,8,10,12,14,-1,16,18,20,22,24,-1,26,28,30,32,34,36,38,40,42,44,-1,-1,-1,-1,-1,-1,-1,-1,-1,-1,-1,-1,-1,-1,-1,-1,-1,-1,-1,-1],"split_conditions":[3.5285E1,4.3100004E0,7.4540263E-1,9.25E-1,9.059999E0,2.85E-1,2.255E0,5E-1,1.15246706E-1,1.14999995E-1,5.85E-1,1.485E0,3.085E0,5.205E0,1.0830188E-2,1.5E-2,1.95E-1,4.35E-1,6.95E-1,1.165E0,6E-1,2.335E0,1.125E0,6.4849997E0,5E-1,-3.0014669E-3,-2.6529923E-3,-2.055181E-3,-1.5885178E-3,-8.286391E-4,1.7837918E-5,8.927766E-4,1.9091252E-3,3.376314E-3,4.8933853E-3,9.814168E-4,8.641485E-3,1.9419648E-2,1.14441365E-2,2.3816003E-2,1.3097589E-2,3.0798674E-2,4.6634674E-3,5.4017548E-2,1.7875195E-2],"split_indices":[1,2,0,2,2,2,2,43,0,2,2,2,2,2,0,2,2,2,2,2,1,2,4,1,45,0,0,0,0,0,0,0,0,0,0,0,0,0,0,0,0,0,0,0,0],"split_type":[0,0,0,0,0,0,0,0,0,0,0,0,0,0,0,0,0,0,0,0,0,0,0,0,0,0,0,0,0,0,0,0,0,0,0,0,0,0,0,0,0,0,0,0,0],"sum_hessian":[1.1333E4,1.1332E4,1E0,1.1311E4,2.1E1,1.0961E4,3.5E2,1.7E1,4E0,9.945E3,1.016E3,2.8E2,7E1,1.6E1,1E0,8.545E3,1.4E3,7.55E2,2.61E2,2.03E2,7.7E1,4.2E1,2.8E1,6E0,1E1,4.935E3,3.61E3,8.57E2,5.43E2,4.72E2,2.83E2,1.22E2,1.39E2,1.25E2,7.8E1,4E0,7.3E1,8E0,3.4E1,2E1,8E0,5E0,1E0,8E0,2E0],"tree_param":{"num_deleted":"0","num_feature":"100","num_nodes":"45","size_leaf_vector":"0"}},{"base_weights":[-4.3453216E-3,-4.7184173E-3,2.1119738E0,-5.0088544E-3,1.5981798E-1,-5.706698E-3,1.9780751E-2,1.1830632E-1,3.556153E-1,-6.3139605E-3,5.467935E-4,1.4199928E-2,4.657455E-2,1.21655464E-1,3.0685425E-2,-6.8043387E-3,-4.7797654E-3,-9.3953544E-4,3.8149245E-3,1.0680602E-2,2.314318E-2,4.8063707E-2,5.7340465E-3,5.9458017E-2,1.3073649E-1,-7.0869024E-3,-6.5019745E-3,-5.2933297E-3,-3.880272E-3,-1.8080304E-3,-8.871231E-5,2.4404451E-3,5.62194E-3,9.0566E-3,1.3808727E-2,2.0143896E-2,4.189996E-2,3.6647458E-2,5.6132503E-2,1.2561321E-2,-3.960252E-3,7.046858E-2,1.3213158E-2,1.4714727E-1,7.176761E-2],"categories":[],"categories_nodes":[],"categories_segments":[],"categories_sizes":[],"default_left":[1,1,0,1,1,1,1,1,0,1,1,1,1,1,0,1,1,1,1,1,1,1,1,1,1,0,0,0,0,0,0,0,0,0,0,0,0,0,0,0,0,0,0,0,0],"id":12,"left_children":[1,3,-1,5,7,9,11,13,-1,15,17,19,21,23,-1,25,27,29,31,33,35,37,39,41,43,-1,-1,-1,-1,-1,-1,-1,-1,-1,-1,-1,-1,-1,-1,-1,-1,-1,-1,-1,-1],"loss_changes":[8.959171E0,5.4237664E-1,0E0,1.9583678E-1,1.2048584E-1,4.1795045E-2,4.5693398E-2,1.5491545E-3,0E0,7.514149E-3,4.739664E-3,7.873163E-3,2.9477477E-3,1.8285513E-3,0E0,6.031692E-4,1.1033788E-3,4.956654E-4,7.438101E-4,8.249171E-4,3.2064728E-3,2.6407838E-3,2.483029E-4,1.1056168E-3,2.9877275E-3,0E0,0E0,0E0,0E0,0E0,0E0,0E0,0E0,0E0,0E0,0E0,0E0,0E0,0E0,0E0,0E0,0E0,0E0,0E0,0E0],"parents":[2147483647,0,0,1,1,3,3,4,4,5,5,6,6,7,7,9,9,10,10,11,11,12,12,13,13,15,15,16,16,17,17,18,18,19,19,20,20,21,21,22,22,23,23,24,24],"right_children":[2,4,-1,6,8,10,12,14,-1,16,18,20,22,24,-1,26,28,30,32,34,36,38,40,42,44,-1,-1,-1,-1,-1,-1,-1,-1,-1,-1,-1,-1,-1,-1,-1,-1,-1,-1,-1,-1],"split_conditions":[3.5285E1,4.38E0,6.335921E-1,1.005E0,3.135E0,3.05E-1,2.5549998E0,5E-1,1.0668459E-1,6.5E-2,5.85E-1,1.715E0,5.5150003E0,2.0015E3,9.205628E-3,5E-3,1.6499999E-1,4.05E-1,7.75E-1,2.025E0,1.41E0,7.6949997E0,1.9975E3,1.9995E3,2.0105E3,-2.126071E-3,-1.9505924E-3,-1.5879989E-3,-1.1640816E-3,-5.4240914E-4,-2.6613694E-5,7.321336E-4,1.686582E-3,2.71698E-3,4.1426183E-3,6.043169E-3,1.2569989E-2,1.0994238E-2,1.6839752E-2,3.7683966E-3,-1.1880756E-3,2.1140575E-2,3.9639473E-3,4.4144183E-2,2.1530285E-2],"split_indices":[1,2,0,2,4,2,2,43,0,2,2,2,3,0,0,2,2,2,2,1,3,5,0,0,0,0,0,0,0,0,0,0,0,0,0,0,0,0,0,0,0,0,0,0,0],"split_type":[0,0,0,0,0,0,0,0,0,0,0,0,0,0,0,0,0,0,0,0,0,0,0,0,0,0,0,0,0,0,0,0,0,0,0,0,0,0,0,0,0,0,0,0,0],"sum_hessian":[1.1333E4,1.1332E4,1E0,1.1313E4,1.9E1,1.1004E4,3.09E2,1.7E1,2E0,1.003E4,9.74E2,2.57E2,5.2E1,1.6E1,1E0,7.598E3,2.432E3,6.7E2,3.04E2,1.86E2,7.1E1,5E1,2E0,3E0,1.3E1,3.916E3,3.682E3,1.545E3,8.87E2,3.31E2,3.39E2,1.74E2,1.3E2,1.25E2,6.1E1,6.3E1,8E0,2.3E1,2.7E1,1E0,1E0,2E0,1E0,9E0,4E0],"tree_param":{"num_deleted":"0","num_feature":"100","num_nodes":"45","size_leaf_vector":"0"}},{"base_weights":[-2.9630973E-3,-3.280164E-3,1.7951775E0,-3.5435173E-3,1.0317528E-1,-4.090459E-3,1.0233182E-2,8.1291854E-2,3.4701395E-1,-4.53792E-3,-1.0388716E-3,6.319934E-3,2.2514198E-2,5.5111747E-2,1.0166539E-1,-4.7971914E-3,-3.6613096E-3,-1.7488048E-3,1.1123971E-3,5.973619E-3,2.7566409E-2,1.9313106E-2,3.5818387E-2,6.1227452E-2,2.4515629E-2,1.1578369E-1,3.742373E-2,-4.9613738E-3,-4.6066325E-3,-3.8684604E-3,-3.1930828E-3,-2.379435E-3,-1.0541365E-3,6.839253E-4,2.1028416E-3,4.4425824E-3,8.325608E-3,6.920408E-3,2.204686E-2,4.7802664E-2,1.719112E-2,1.8201113E-2,6.3709974E-2,1.22145556E-1,2.6082516E-2],"categories":[],"categories_nodes":[],"categories_segments":[],"categories_sizes":[],"default_left":[1,1,0,1,1,1,1,1,0,1,1,1,1,1,1,1,1,1,1,1,0,1,1,1,0,1,0,0,0,0,0,0,0,0,0,0,0,0,0,0,0,0,0,0,0],"id":13,"left_children":[1,3,-1,5,7,9,11,13,-1,15,17,19,21,23,25,27,29,31,33,35,-1,37,39,41,-1,43,-1,-1,-1,-1,-1,-1,-1,-1,-1,-1,-1,-1,-1,-1,-1,-1,-1,-1,-1],"loss_changes":[6.4677496E0,3.180907E-1,0E0,8.523315E-2,1.2119934E-1,1.4844716E-2,2.061906E-2,8.798346E-3,0E0,2.137974E-3,2.1278872E-3,2.2561E-3,3.7373789E-3,1.1186041E-3,8.364692E-3,2.0603836E-4,1.9802526E-4,4.5616017E-4,1.4539645E-4,1.133332E-3,0E0,2.760984E-3,3.4196712E-3,1.5359372E-5,0E0,3.0914694E-3,0E0,0E0,0E0,0E0,0E0,0E0,0E0,0E0,0E0,0E0,0E0,0E0,0E0,0E0,0E0,0E0,0E0,0E0,0E0],"parents":[2147483647,0,0,1,1,3,3,4,4,5,5,6,6,7,7,9,9,10,10,11,11,12,12,13,13,14,14,15,15,16,16,17,17,18,18,19,19,21,21,22,22,23,23,25,25],"right_children":[2,4,-1,6,8,10,12,14,-1,16,18,20,22,24,26,28,30,32,34,36,-1,38,40,42,-1,44,-1,-1,-1,-1,-1,-1,-1,-1,-1,-1,-1,-1,-1,-1,-1,-1,-1,-1,-1],"split_conditions":[3.5285E1,3.885E0,5.3855324E-1,7.75E-1,1.58E1,2.05E-1,1.86E0,5.425E0,1.0410419E-1,5.5E-2,4.85E-1,7.0500004E-1,1.5150001E0,6.5249996E0,5E-1,5E-3,1.3499999E-1,3.05E-1,6.45E-1,1.135E0,8.269923E-3,4.4E-1,4.955E0,2E3,7.354689E-3,5E-1,1.122712E-2,-1.4884121E-3,-1.3819898E-3,-1.1605382E-3,-9.579249E-4,-7.138306E-4,-3.1624097E-4,2.051776E-4,6.3085253E-4,1.3327748E-3,2.4976826E-3,2.0761224E-3,6.6140583E-3,1.43408E-2,5.157336E-3,5.460334E-3,1.9112993E-2,3.664367E-2,7.824755E-3],"split_indices":[1,2,0,2,1,2,2,2,0,2,2,4,3,1,52,2,2,2,2,2,0,4,1,0,0,43,0,0,0,0,0,0,0,0,0,0,0,0,0,0,0,0,0,0,0],"split_type":[0,0,0,0,0,0,0,0,0,0,0,0,0,0,0,0,0,0,0,0,0,0,0,0,0,0,0,0,0,0,0,0,0,0,0,0,0,0,0,0,0,0,0,0,0],"sum_hessian":[1.1333E4,1.1332E4,1E0,1.1305E4,2.7E1,1.0874E4,4.31E2,2.6E1,1E0,9.483E3,1.391E3,3.28E2,1.03E2,1.3E1,1.3E1,7.315E3,2.168E3,1.046E3,3.45E2,3.24E2,4E0,8.5E1,1.8E1,1E1,3E0,1E1,3E0,3.916E3,3.399E3,1.498E3,6.7E2,5.47E2,4.99E2,2.42E2,1.03E2,1.98E2,1.26E2,1.6E1,6.9E1,1E1,8E0,1E0,9E0,9E0,1E0],"tree_param":{"num_deleted":"0","num_feature":"100","num_nodes":"45","size_leaf_vector":"0"}},{"base_weights":[-2.0066379E-3,-2.2760993E-3,1.5259008E0,-2.447728E-3,9.49281E-2,-2.823471E-3,9.227464E-3,6.887569E-2,2.9496193E-1,-3.1099264E-3,-1.9237179E-5,6.3773515E-3,2.361377E-2,2.3156166E-2,7.289233E-2,-3.3584263E-3,-2.417742E-3,-7.5404695E-4,1.2461017E-3,6.9428803E-3,-1.4849544E-2,1.6779529E-2,2.9433075E-2,-3.4128565E-3,-2.965614E-3,-2.7086956E-3,-2.0306662E-3,-1.0300541E-3,-2.4593726E-4,1.4991068E-3,-1.6016344E-3,6.152052E-3,3.7923098E-2,-2.8430749E-2,5.839348E-3,2.0135993E-2,-3.358698E-3,3.1381607E-2,1.4357567E-3],"categories":[],"categories_nodes":[],"categories_segments":[],"categories_sizes":[],"default_left":[1,1,0,1,1,1,1,1,0,1,1,1,1,0,0,1,1,1,1,1,1,1,1,0,0,0,0,0,0,0,0,0,0,0,0,0,0,0,0],"id":14,"left_children":[1,3,-1,5,7,9,11,13,-1,15,17,19,21,-1,-1,23,25,27,29,31,33,35,37,-1,-1,-1,-1,-1,-1,-1,-1,-1,-1,-1,-1,-1,-1,-1,-1],"loss_changes":[4.6698213E0,1.8930121E-1,0E0,4.9659118E-2,8.391155E-2,8.805573E-3,1.4323322E-2,1.80123E-3,0E0,1.7026737E-3,9.465293E-4,3.656406E-3,1.8128194E-3,0E0,0E0,1.462996E-4,2.9080454E-4,9.006247E-5,2.7186482E-4,6.8472056E-3,2.4138573E-3,2.0278348E-3,1.5915539E-3,0E0,0E0,0E0,0E0,0E0,0E0,0E0,0E0,0E0,0E0,0E0,0E0,0E0,0E0,0E0,0E0],"parents":[2147483647,0,0,1,1,3,3,4,4,5,5,6,6,7,7,9,9,10,10,11,11,12,12,15,15,16,16,17,17,18,18,19,19,20,20,21,21,22,22],"right_children":[2,4,-1,6,8,10,12,14,-1,16,18,20,22,-1,-1,24,26,28,30,32,34,36,38,-1,-1,-1,-1,-1,-1,-1,-1,-1,-1,-1,-1,-1,-1,-1,-1],"split_conditions":[3.5285E1,4.38E0,4.5777026E-1,9.25E-1,1.58E1,2.85E-1,2.47E0,6.5E-1,8.848858E-2,5.5E-2,5.15E-1,2.335E0,3.105E0,6.94685E-3,2.18677E-2,3.5E-2,1.3499999E-1,4.05E-1,8.75E-1,2.2649999E0,2.41E0,2.975E0,5.5150003E0,-1.023857E-3,-8.8968425E-4,-8.126087E-4,-6.0919987E-4,-3.0901624E-4,-7.378118E-5,4.4973203E-4,-4.8049036E-4,1.8456157E-3,1.13769295E-2,-8.529225E-3,1.7518044E-3,6.040798E-3,-1.0076094E-3,9.414483E-3,4.3072703E-4],"split_indices":[1,2,0,2,1,2,2,4,0,2,2,2,2,0,0,2,2,2,2,2,2,2,3,0,0,0,0,0,0,0,0,0,0,0,0,0,0,0,0],"split_type":[0,0,0,0,0,0,0,0,0,0,0,0,0,0,0,0,0,0,0,0,0,0,0,0,0,0,0,0,0,0,0,0,0,0,0,0,0,0,0],"sum_hessian":[1.1333E4,1.1332E4,1E0,1.1313E4,1.9E1,1.0961E4,3.52E2,1.8E1,1E0,9.945E3,1.016E3,2.95E2,5.7E1,2E0,1.6E1,7.315E3,2.63E3,6.43E2,3.73E2,2.88E2,7E0,2.8E1,2.9E1,6.418E3,8.97E2,1.498E3,1.132E3,4.16E2,2.27E2,3.43E2,3E1,2.82E2,6E0,4E0,3E0,2.4E1,4E0,2.7E1,2E0],"tree_param":{"num_deleted":"0","num_feature":"100","num_nodes":"39","size_leaf_vector":"0"}},{"base_weights":[-1.3523559E-3,-1.5813672E-3,1.2970161E0,-1.6516586E-3,1.5800095E-1,-1.861205E-3,1.6699828E-2,7.214236E-2,2.5071764E-1,-2.151545E-3,9.6284825E-4,1.1820986E-2,3.7348937E-2,-2.2927714E-3,-1.4019653E-3,-1.07152686E-4,2.8356318E-3,1.3712259E-2,3.6029306E-3,4.1722436E-2,1.7274698E-2,-2.3891588E-3,-2.000946E-3,-1.6429143E-3,-1.0647017E-3,-4.0705354E-4,2.2232073E-4,2.6068352E-3,1.9474005E-2,1.0121861E-2,2.14704E-2,-4.2515993E-4,2.0828605E-2,3.0558128E-2,5.6495804E-2,2.1685123E-2,5.635897E-3],"categories":[],"categories_nodes":[],"categories_segments":[],"categories_sizes":[],"default_left":[1,1,0,1,1,1,1,0,0,1,1,1,1,1,1,1,1,1,1,1,1,0,0,0,0,0,0,0,0,0,0,0,0,0,0,0,0],"id":15,"left_children":[1,3,-1,5,7,9,11,-1,-1,13,15,17,19,21,23,25,27,29,31,33,35,-1,-1,-1,-1,-1,-1,-1,-1,-1,-1,-1,-1,-1,-1,-1,-1],"loss_changes":[3.372114E0,1.2738605E-1,0E0,4.359661E-2,2.1715254E-2,9.186991E-3,1.2453698E-2,0E0,0E0,1.0721199E-3,2.0943584E-3,1.5825685E-3,1.3863258E-3,2.3560598E-4,1.2932857E-4,6.5897526E-5,1.3958197E-3,2.1503381E-3,1.4659736E-3,1.4073513E-3,1.8577732E-4,0E0,0E0,0E0,0E0,0E0,0E0,0E0,0E0,0E0,0E0,0E0,0E0,0E0,0E0,0E0,0E0],"parents":[2147483647,0,0,1,1,3,3,4,4,5,5,6,6,9,9,10,10,11,11,12,12,13,13,14,14,15,15,16,16,17,17,18,18,19,19,20,20],"right_children":[2,4,-1,6,8,10,12,-1,-1,14,16,18,20,22,24,26,28,30,32,34,36,-1,-1,-1,-1,-1,-1,-1,-1,-1,-1,-1,-1,-1,-1,-1,-1],"split_conditions":[3.5285E1,9.059999E0,3.8910487E-1,1.845E0,1.58E1,3.45E-1,3.885E0,2.164271E-2,7.5215295E-2,1.14999995E-1,6.95E-1,5E-1,1.875E0,3.5E-2,2.05E-1,4.75E-1,7.0500004E-1,7.705E0,2.5E-1,5.425E0,2.0105E3,-7.1674766E-4,-6.0028385E-4,-4.928743E-4,-3.1941052E-4,-1.2211606E-4,6.669622E-5,7.820506E-4,5.842202E-3,3.0365584E-3,6.44112E-3,-1.2754799E-4,6.2485817E-3,9.167438E-3,1.6948743E-2,6.5055373E-3,1.6907692E-3],"split_indices":[1,2,0,2,1,2,2,0,0,2,2,45,4,2,2,2,4,5,3,2,0,0,0,0,0,0,0,0,0,0,0,0,0,0,0,0,0],"split_type":[0,0,0,0,0,0,0,0,0,0,0,0,0,0,0,0,0,0,0,0,0,0,0,0,0,0,0,0,0,0,0,0,0,0,0,0,0],"sum_hessian":[1.1333E4,1.1332E4,1E0,1.1328E4,4E0,1.1201E4,1.27E2,3E0,1E0,1.0157E4,1.044E3,1.04E2,2.3E1,8.545E3,1.612E3,6.65E2,3.79E2,8.4E1,2E1,1.8E1,5E0,6.418E3,2.127E3,9.38E2,6.74E2,3.48E2,3.17E2,3.75E2,4E0,5.9E1,2.5E1,1.7E1,3E0,1.2E1,6E0,3E0,2E0],"tree_param":{"num_deleted":"0","num_feature":"100","num_nodes":"37","size_leaf_vector":"0"}},{"base_weights":[-8.989765E-4,-1.0936139E-3,1.1024637E0,-1.1313226E-3,2.1310997E-1,-1.2390327E-3,2.4756929E-2,-1.3606632E-3,5.060284E-3,1.7725017E-2,4.6159092E-2,-1.5459419E-3,-6.246082E-5,4.661513E-3,2.4830371E-2,4.063964E-2,1.4507854E-2,7.3153973E-3,4.9311925E-2,-1.6487897E-3,-1.2284765E-3,9.3017325E-6,-8.268088E-3,4.085695E-3,1.5826892E-2,-8.577664E-3,1.8783899E-2,5.3016927E-2,7.983446E-3],"categories":[],"categories_nodes":[],"categories_segments":[],"categories_sizes":[],"default_left":[1,1,0,1,0,1,1,1,1,1,1,1,1,1,0,0,1,0,1,0,0,0,0,0,0,0,0,0,0],"id":16,"left_children":[1,3,-1,5,-1,7,9,11,13,15,17,19,21,23,-1,-1,25,-1,27,-1,-1,-1,-1,-1,-1,-1,-1,-1,-1],"loss_changes":[2.435247E0,9.178127E-2,0E0,3.1629127E-2,0E0,8.654097E-3,6.2552392E-3,2.6632864E-3,1.5713717E-3,2.1380475E-3,9.864066E-4,3.1435676E-4,8.1505475E-4,1.2919037E-3,0E0,0E0,3.5174214E-3,0E0,1.1079647E-3,0E0,0E0,0E0,0E0,0E0,0E0,0E0,0E0,0E0,0E0],"parents":[2147483647,0,0,1,1,3,3,5,5,6,6,7,7,8,8,9,9,10,10,11,11,12,12,13,13,16,16,18,18],"right_children":[2,4,-1,6,-1,8,10,12,14,16,18,20,22,24,-1,-1,26,-1,28,-1,-1,-1,-1,-1,-1,-1,-1,-1,-1],"split_conditions":[3.5285E1,1.1945E1,3.3073914E-1,3.125E0,6.393299E-2,1.135E0,5.94E0,2.35E-1,5E-1,3.2150002E0,5.2500004E-1,5.5E-2,1.115E0,1.0045E1,7.4491114E-3,1.2191893E-2,3.395E0,2.1946193E-3,5E-1,-4.9463694E-4,-3.6854297E-4,2.7905198E-6,-2.4804266E-3,1.2257085E-3,4.748068E-3,-2.5732995E-3,5.63517E-3,1.5905079E-2,2.3950338E-3],"split_indices":[1,2,0,2,0,2,2,2,49,2,1,2,2,5,0,0,2,0,43,0,0,0,0,0,0,0,0,0,0],"split_type":[0,0,0,0,0,0,0,0,0,0,0,0,0,0,0,0,0,0,0,0,0,0,0,0,0,0,0,0,0],"sum_hessian":[1.1333E4,1.1332E4,1E0,1.1331E4,1E0,1.1285E4,4.6E1,1.1072E4,2.13E2,3.6E1,1E1,9.689E3,1.383E3,2.1E2,3E0,3E0,3.3E1,1E0,9E0,7.315E3,2.374E3,1.372E3,1.1E1,2.01E2,9E0,5E0,2.8E1,8E0,1E0],"tree_param":{"num_deleted":"0","num_feature":"100","num_nodes":"29","size_leaf_vector":"0"}},{"base_weights":[-5.904195E-4,-7.55846E-4,9.3709373E-1,-7.878829E-4,1.8114328E-1,-8.483732E-4,2.4571048E-2,-9.412756E-4,5.100656E-3,1.9397259E-2,4.3456268E-2,-1.0505244E-3,5.2631216E-4,4.5351144E-3,1.7944982E-2,-4.1236877E-3,2.1833714E-2,-1.1286635E-3,-6.8243017E-4,2.515508E-4,2.8671583E-3,4.771487E-3,-1.7469525E-2,2.5388598E-3,2.0089528E-2,4.595995E-3,-1.0781527E-2,3.0753743E-2,1.0928804E-2],"categories":[],"categories_nodes":[],"categories_segments":[],"categories_sizes":[],"default_left":[1,1,0,1,0,1,1,1,1,1,0,1,1,1,1,1,1,0,0,0,0,0,0,0,0,0,0,0,0],"id":17,"left_children":[1,3,-1,5,-1,7,9,11,13,15,-1,17,19,21,23,25,27,-1,-1,-1,-1,-1,-1,-1,-1,-1,-1,-1,-1],"loss_changes":[1.758813E0,6.6185646E-2,0E0,1.7403783E-2,0E0,6.2533924E-3,1.7951876E-3,1.7855316E-3,1.1825534E-3,1.4081141E-3,8.046627E-7,2.9726792E-4,4.958091E-4,9.5717143E-4,1.8026936E-4,2.2371458E-4,1.7066123E-3,0E0,0E0,0E0,0E0,0E0,0E0,0E0,0E0,0E0,0E0,0E0,0E0],"parents":[2147483647,0,0,1,1,3,3,5,5,6,6,7,7,8,8,9,9,11,11,12,12,13,13,14,14,15,15,16,16],"right_children":[2,4,-1,6,-1,8,10,12,14,16,-1,18,20,22,24,26,28,-1,-1,-1,-1,-1,-1,-1,-1,-1,-1,-1,-1],"split_conditions":[3.5285E1,1.1945E1,2.8112814E-1,3.885E0,5.434299E-2,1.295E0,8.46E0,4.05E-1,5E-1,2.0015E3,1.3036881E-2,1.14999995E-1,1.895E0,5E-1,2.0005E3,1.9995E3,2.0105E3,-3.385991E-4,-2.0472906E-4,7.546524E-5,8.601475E-4,1.431446E-3,-5.2408576E-3,7.61658E-4,6.0268585E-3,1.3787985E-3,-3.2344582E-3,9.226123E-3,3.2786413E-3],"split_indices":[1,2,0,2,0,2,2,2,46,0,0,2,1,58,0,0,0,0,0,0,0,0,0,0,0,0,0,0,0],"split_type":[0,0,0,0,0,0,0,0,0,0,0,0,0,0,0,0,0,0,0,0,0,0,0,0,0,0,0,0,0],"sum_hessian":[1.1333E4,1.1332E4,1E0,1.1331E4,1E0,1.1305E4,2.6E1,1.1132E4,1.73E2,2.2E1,4E0,1.0361E4,7.71E2,1.67E2,6E0,2E0,2E1,8.545E3,1.816E3,6.91E2,8E1,1.66E2,1E0,1E0,5E0,1E0,1E0,1E1,1E1],"tree_param":{"num_deleted":"0","num_feature":"100","num_nodes":"29","size_leaf_vector":"0"}},{"base_weights":[-3.8130715E-4,-5.2190904E-4,7.9652977E-1,-5.4912973E-4,1.5397167E-1,-6.0822436E-4,1.36528015E-2,-7.004735E-4,1.8282263E-3,1.1082494E-2,3.3026885E-2,-7.691783E-4,-2.318691E-4,1.6143335E-3,1.0265279E-2,1.684043E-2,2.1497805E-3,3.7890673E-2,6.7858696E-3,-8.7515666E-4,-6.54015E-4,-3.212208E-4,3.9134367E-4,1.9661018E-3,-2.198869E-2,1.4848327E-2,4.735192E-3,6.668384E-3,2.5083015E-2,-3.7579774E-3,8.475091E-3],"categories":[],"categories_nodes":[],"categories_segments":[],"categories_sizes":[],"default_left":[1,1,0,1,0,1,1,1,1,1,1,1,1,1,1,1,1,0,0,0,0,0,0,0,0,0,0,0,0,0,0],"id":18,"left_children":[1,3,-1,5,-1,7,9,11,13,15,17,19,21,23,25,27,29,-1,-1,-1,-1,-1,-1,-1,-1,-1,-1,-1,-1,-1,-1],"loss_changes":[1.2703584E0,4.7744658E-2,0E0,9.51877E-3,0E0,2.5379271E-3,1.974456E-3,3.4994632E-4,7.2693336E-4,2.1754582E-3,3.8103247E-4,1.15177594E-4,7.763939E-5,3.3892593E-3,1.831369E-4,2.0126794E-3,7.0448057E-4,0E0,0E0,0E0,0E0,0E0,0E0,0E0,0E0,0E0,0E0,0E0,0E0,0E0,0E0],"parents":[2147483647,0,0,1,1,3,3,5,5,6,6,7,7,8,8,9,9,10,10,11,11,12,12,13,13,14,14,15,15,16,16],"right_children":[2,4,-1,6,-1,8,10,12,14,16,18,20,22,24,26,28,30,-1,-1,-1,-1,-1,-1,-1,-1,-1,-1,-1,-1,-1,-1],"split_conditions":[3.5285E1,1.1945E1,2.3895894E-1,3.125E0,4.6191502E-2,7.75E-1,8.46E0,2.05E-1,1.0045E1,1.2915E1,1.3565001E1,1.5E-2,5.85E-1,5.82E0,1.0785E1,8.085E0,4.775E0,1.1367202E-2,2.035761E-3,-2.6254702E-4,-1.962045E-4,-9.6366246E-5,1.17403106E-4,5.8983057E-4,-6.596607E-3,4.454498E-3,1.4205576E-3,2.0005153E-3,7.524905E-3,-1.1273932E-3,2.5425274E-3],"split_indices":[1,2,0,2,0,2,2,2,5,5,1,2,2,1,5,5,2,0,0,0,0,0,0,0,0,0,0,0,0,0,0],"split_type":[0,0,0,0,0,0,0,0,0,0,0,0,0,0,0,0,0,0,0,0,0,0,0,0,0,0,0,0,0,0,0],"sum_hessian":[1.1333E4,1.1332E4,1E0,1.1331E4,1E0,1.1285E4,4.6E1,1.0874E4,4.11E2,4.2E1,4E0,9.483E3,1.391E3,4.02E2,9E0,2.5E1,1.7E1,3E0,1E0,4.935E3,4.548E3,1.217E3,1.74E2,3.97E2,5E0,4E0,5E0,1.2E1,1.3E1,9E0,8E0],"tree_param":{"num_deleted":"0","num_feature":"100","num_nodes":"31","size_leaf_vector":"0"}},{"base_weights":[-2.3965846E-4,-3.5916263E-4,6.770506E-1,-3.8229284E-4,1.3087606E-1,-4.1753275E-4,1.4388261E-2,-4.6307998E-4,3.0671929E-3,1.151824E-2,2.8011322E-2,-4.5534578E-4,-2.1921784E-2,1.4085734E-2,2.2405316E-3,1.5426058E-2,-2.7762253E-3,3.3503216E-2,5.7678223E-3,-4.6405743E-4,1.5814006E-2,2.1466494E-3,2.168735E-2,-5.4455483E-3,3.6009345E-3,9.583165E-3,4.3393772E-2,-4.8578978E-3,9.247462E-4],"categories":[],"categories_nodes":[],"categories_segments":[],"categories_sizes":[],"default_left":[1,1,0,1,0,1,1,1,1,1,1,1,0,1,1,1,1,0,0,0,0,0,0,0,0,0,0,0,0],"id":19,"left_children":[1,3,-1,5,-1,7,9,11,13,15,17,19,-1,21,23,25,27,-1,-1,-1,-1,-1,-1,-1,-1,-1,-1,-1,-1],"loss_changes":[9.1760594E-1,3.4451306E-2,0E0,5.904464E-3,0E0,1.7959038E-3,7.3301746E-4,1.8423565E-3,1.2982961E-3,1.3834704E-3,2.9539503E-4,1.5887897E-3,0E0,8.6100795E-4,1.452104E-3,2.6889853E-3,5.0717583E-5,0E0,0E0,0E0,0E0,0E0,0E0,0E0,0E0,0E0,0E0,0E0,0E0],"parents":[2147483647,0,0,1,1,3,3,5,5,6,6,7,7,8,8,9,9,10,10,11,11,13,13,14,14,15,15,16,16],"right_children":[2,4,-1,6,-1,8,10,12,14,16,18,20,-1,22,24,26,28,-1,-1,-1,-1,-1,-1,-1,-1,-1,-1,-1,-1],"split_conditions":[3.5285E1,1.1945E1,2.0311518E-1,3.885E0,3.926282E-2,1.455E0,9.059999E0,1.42E0,1.515E0,1.875E0,1.3565001E1,1.395E0,-6.5765353E-3,1.485E0,3.83E0,1.755E0,9.375E0,1.00509655E-2,1.7303467E-3,-1.3921724E-4,4.744202E-3,6.4399483E-4,6.506205E-3,-1.6336646E-3,1.0802804E-3,2.8749495E-3,1.3018132E-2,-1.4573694E-3,2.7742388E-4],"split_indices":[1,2,0,2,0,2,2,2,2,4,1,2,0,2,5,4,1,0,0,0,0,0,0,0,0,0,0,0,0],"split_type":[0,0,0,0,0,0,0,0,0,0,0,0,0,0,0,0,0,0,0,0,0,0,0,0,0,0,0,0,0],"sum_hessian":[1.1333E4,1.1332E4,1E0,1.1331E4,1E0,1.1305E4,2.6E1,1.116E4,1.45E2,2.3E1,3E0,1.1157E4,3E0,9E0,1.36E2,1.8E1,5E0,2E0,1E0,1.1152E4,5E0,4E0,5E0,2E1,1.16E2,1.6E1,2E0,3E0,2E0],"tree_param":{"num_deleted":"0","num_feature":"100","num_nodes":"29","size_leaf_vector":"0"}},{"base_weights":[-1.4362962E-4,-2.4520283E-4,5.7549286E-1,-2.6485822E-4,1.1124468E-1,-2.8916667E-4,1.28419055E-2,-3.208705E-4,2.9129542E-3,-9.008646E-4,1.5182416E-2,-3.1239432E-4,-1.6085327E-2,7.0669097E-3,7.9507256E-5,5.4909387E-3,-1.0038137E-2,2.0349937E-2,6.179273E-3,-3.2008768E-4,2.1295577E-2,-2.7688622E-2,-8.226943E-3,3.2783984E-3,1.8478816E-2,-1.597339E-2,1.081571E-3,7.0385933E-3,1.1978149E-3,2.7119339E-2,1.7236471E-3,-2.0337105E-4,1.6884804E-2],"categories":[],"categories_nodes":[],"categories_segments":[],"categories_sizes":[],"default_left":[1,1,0,1,0,1,1,1,1,1,1,1,1,1,1,1,0,1,1,0,0,0,0,0,0,0,0,0,0,0,0,0,0],"id":20,"left_children":[1,3,-1,5,-1,7,9,11,13,15,17,19,21,23,25,27,-1,29,31,-1,-1,-1,-1,-1,-1,-1,-1,-1,-1,-1,-1,-1,-1],"loss_changes":[6.628316E-1,2.4864303E-2,0E0,3.6141467E-3,0E0,1.149323E-3,6.8914425E-4,1.4918098E-3,1.3059095E-3,2.887334E-4,7.116827E-4,1.8681828E-3,3.1930616E-4,1.884955E-3,1.09504E-3,1.1501877E-5,0E0,1.3402328E-3,5.500706E-4,0E0,0E0,0E0,0E0,0E0,0E0,0E0,0E0,0E0,0E0,0E0,0E0,0E0,0E0],"parents":[2147483647,0,0,1,1,3,3,5,5,6,6,7,7,8,8,9,9,10,10,11,11,12,12,13,13,14,14,15,15,17,17,18,18],"right_children":[2,4,-1,6,-1,8,10,12,14,16,18,20,22,24,26,28,-1,30,32,-1,-1,-1,-1,-1,-1,-1,-1,-1,-1,-1,-1,-1,-1],"split_conditions":[3.5285E1,1.1945E1,1.7264786E-1,4.3100004E0,3.3373404E-2,1.845E0,2.0015E3,1.77E0,2.48E0,1.9995E3,2.0105E3,1.735E0,1.81E0,1.785E0,2.565E0,1.997E3,-3.0114413E-3,5E-1,5.94E0,-9.6026306E-5,6.3886736E-3,-8.306587E-3,-2.468083E-3,9.835196E-4,5.543645E-3,-4.792017E-3,3.244713E-4,2.1115781E-3,3.593445E-4,8.135802E-3,5.1709416E-4,-6.1011317E-5,5.065441E-3],"split_indices":[1,2,0,2,0,2,0,2,1,0,0,2,2,1,1,0,0,32,2,0,0,0,0,0,0,0,0,0,0,0,0,0,0],"split_type":[0,0,0,0,0,0,0,0,0,0,0,0,0,0,0,0,0,0,0,0,0,0,0,0,0,0,0,0,0,0,0,0,0],"sum_hessian":[1.1333E4,1.1332E4,1E0,1.1331E4,1E0,1.1311E4,2E1,1.1201E4,1.1E2,3E0,1.7E1,1.1196E4,5E0,4.4E1,6.6E1,2E0,1E0,1E1,7E0,1.1193E4,3E0,1E0,4E0,3.4E1,1E1,3E0,6.3E1,1E0,1E0,7E0,3E0,5E0,2E0],"tree_param":{"num_deleted":"0","num_feature":"100","num_nodes":"33","size_leaf_vector":"0"}},{"base_weights":[-8.141979E-5,-1.6775347E-4,4.8916912E-1,-1.844569E-4,9.455776E-2,-2.0313646E-4,9.427764E-3,-2.6883496E-4,9.5383695E-4,1.1394024E-3,1.3219706E-2,-2.6288704E-4,-6.026842E-3,8.7724684E-4,1.0015154E-2,-5.929661E-3,9.690881E-3,2.1881375E-2,5.013996E-3,-2.6855912E-4,6.5009724E-3,-3.2161474E-3,-1.7066896E-2,6.895799E-4,4.323814E-3,1.0353327E-3,1.565659E-2,1.0180473E-3,-7.9211E-3,1.5124639E-2,-3.3051968E-3,3.695643E-2,1.3359785E-3,6.5755844E-4,1.3507684E-2],"categories":[],"categories_nodes":[],"categories_segments":[],"categories_sizes":[],"default_left":[1,1,0,1,0,1,1,1,1,1,1,1,1,1,1,1,1,1,1,0,0,0,0,0,0,0,0,0,0,0,0,0,0,0,0],"id":21,"left_children":[1,3,-1,5,-1,7,9,11,13,15,17,19,21,23,25,27,29,31,33,-1,-1,-1,-1,-1,-1,-1,-1,-1,-1,-1,-1,-1,-1,-1,-1],"loss_changes":[4.7881663E-1,1.7948981E-2,0E0,2.036598E-3,0E0,8.6002145E-4,6.763751E-4,3.6500714E-4,4.131706E-4,5.410712E-4,9.5641403E-4,4.1202287E-4,2.8644284E-4,3.8768974E-4,2.3708568E-4,7.724372E-5,3.324601E-4,2.118688E-3,3.2413786E-4,0E0,0E0,0E0,0E0,0E0,0E0,0E0,0E0,0E0,0E0,0E0,0E0,0E0,0E0,0E0,0E0],"parents":[2147483647,0,0,1,1,3,3,5,5,6,6,7,7,8,8,9,9,10,10,11,11,12,12,13,13,14,14,15,15,16,16,17,17,18,18],"right_children":[2,4,-1,6,-1,8,10,12,14,16,18,20,22,24,26,28,30,32,34,-1,-1,-1,-1,-1,-1,-1,-1,-1,-1,-1,-1,-1,-1,-1,-1],"split_conditions":[3.5285E1,1.1945E1,1.4675075E-1,4.295E0,2.836733E-2,1.85E-1,2.0055E3,1.425E0,5E-1,7.7E0,2.0105E3,1.28E0,5E-1,1.41E0,2.3700001E0,1.9995E3,2.0035E3,5E-1,5.94E0,-8.056774E-5,1.9502918E-3,-9.6484425E-4,-5.120069E-3,2.0687397E-4,1.2971442E-3,3.105998E-4,4.6969773E-3,3.054142E-4,-2.37633E-3,4.537392E-3,-9.915591E-4,1.108693E-2,4.0079356E-4,1.9726754E-4,4.052305E-3],"split_indices":[1,2,0,2,0,4,0,2,49,1,0,2,66,3,1,0,0,32,2,0,0,0,0,0,0,0,0,0,0,0,0,0,0,0,0],"split_type":[0,0,0,0,0,0,0,0,0,0,0,0,0,0,0,0,0,0,0,0,0,0,0,0,0,0,0,0,0,0,0,0,0,0,0],"sum_hessian":[1.1333E4,1.1332E4,1E0,1.1331E4,1E0,1.131E4,2.1E1,1.0703E4,6.07E2,7E0,1.4E1,1.0693E4,1E1,6.03E2,4E0,4E0,3E0,6E0,8E0,1.0685E4,8E0,9E0,1E0,5.73E2,3E1,2E0,2E0,1E0,3E0,2E0,1E0,3E0,3E0,6E0,2E0],"tree_param":{"num_deleted":"0","num_feature":"100","num_nodes":"35","size_leaf_vector":"0"}},{"base_weights":[-3.9822222E-5,-1.13203205E-4,4.1579342E-1,-1.2739855E-4,8.037424E-2,-1.4359591E-4,6.659817E-3,-1.3762464E-4,-1.1366566E-2,5.418438E-3,1.946783E-2,-1.5449937E-4,3.9062654E-3,-1.3045597E-2,-1.4857054E-3,-3.811663E-4,9.067014E-3,-1.4309066E-4,-2.1520099E-2,1.574237E-2,1.7901921E-3,-4.641533E-3,5.65958E-3,2.408298E-2,5.2016634E-3],"categories":[],"categories_nodes":[],"categories_segments":[],"categories_sizes":[],"default_left":[1,1,0,1,0,1,1,1,1,1,0,1,1,0,0,1,1,0,0,0,0,0,0,0,0],"id":22,"left_children":[1,3,-1,5,-1,7,9,11,13,15,-1,17,19,-1,-1,21,23,-1,-1,-1,-1,-1,-1,-1,-1],"loss_changes":[3.458956E-1,1.2958728E-2,0E0,1.2467398E-3,0E0,7.561127E-4,3.2380386E-4,7.717792E-4,8.015969E-5,5.5362366E-4,0E0,2.7403734E-3,1.1489831E-3,0E0,0E0,3.0936286E-4,8.0340006E-4,0E0,0E0,0E0,0E0,0E0,0E0,0E0,0E0],"parents":[2147483647,0,0,1,1,3,3,5,5,6,6,7,7,8,8,9,9,11,11,12,12,15,15,16,16],"right_children":[2,4,-1,6,-1,8,10,12,14,16,-1,18,20,-1,-1,22,24,-1,-1,-1,-1,-1,-1,-1,-1],"split_conditions":[3.5285E1,1.1945E1,1.2473803E-1,3.885E0,2.4112273E-2,3.66E0,5E-1,2.4250002E0,3.815E0,4.1E-1,5.8403495E-3,2.335E0,5.1E-1,-3.913679E-3,-4.4571163E-4,5E-1,4.85E-1,-4.2927197E-5,-6.45603E-3,4.7227116E-3,5.3705764E-4,-1.39246E-3,1.6978742E-3,7.224894E-3,1.5604991E-3],"split_indices":[1,2,0,2,0,2,46,2,2,3,0,2,4,0,0,47,3,0,0,0,0,0,0,0,0],"split_type":[0,0,0,0,0,0,0,0,0,0,0,0,0,0,0,0,0,0,0,0,0,0,0,0,0],"sum_hessian":[1.1333E4,1.1332E4,1E0,1.1331E4,1E0,1.1305E4,2.6E1,1.13E4,5E0,2.5E1,1E0,1.1254E4,4.6E1,4E0,1E0,1E1,1.5E1,1.1249E4,5E0,6E0,4E1,6E0,4E0,2E0,1.3E1],"tree_param":{"num_deleted":"0","num_feature":"100","num_nodes":"25","size_leaf_vector":"0"}},{"base_weights":[-1.39206195E-5,-7.6292636E-5,3.5342407E-1,-8.835689E-5,6.831789E-2,-1.1550824E-4,2.7610778E-3,-1.7075593E-4,3.705889E-4,9.384359E-3,1.4057428E-3,-2.7954555E-4,-1.0180935E-4,3.460455E-4,9.606282E-3,2.64928E-3,2.6365709E-2,-4.810524E-3,2.8148077E-3,-9.752371E-5,-8.5047993E-4,4.8044143E-4,-1.6616335E-3,2.5196075E-3,1.1889815E-2,-8.9360465E-4,1.5937725E-2,-1.2786298E-2,3.699753E-3,1.0819982E-2,1.2453331E-3],"categories":[],"categories_nodes":[],"categories_segments":[],"categories_sizes":[],"default_left":[1,1,0,1,0,1,1,1,1,1,1,0,1,1,1,1,0,1,1,0,0,0,0,0,0,0,0,0,0,0,0],"id":23,"left_children":[1,3,-1,5,-1,7,9,11,13,15,17,-1,19,21,23,25,-1,27,29,-1,-1,-1,-1,-1,-1,-1,-1,-1,-1,-1,-1],"loss_changes":[2.4988092E-1,9.357172E-3,0E0,8.770307E-4,0E0,3.015458E-4,9.4732177E-4,7.558582E-5,2.5644584E-4,1.988823E-3,8.0186175E-4,2.9677176E-7,1.9720137E-5,3.0947686E-4,1.8590305E-5,6.733541E-4,0E0,1.201199E-3,9.162553E-4,0E0,0E0,0E0,0E0,0E0,0E0,0E0,0E0,0E0,0E0,0E0,0E0],"parents":[2147483647,0,0,1,1,3,3,5,5,6,6,7,7,8,8,9,9,10,10,12,12,13,13,14,14,15,15,17,17,18,18],"right_children":[2,4,-1,6,-1,8,10,12,14,16,18,-1,20,22,24,26,-1,28,30,-1,-1,-1,-1,-1,-1,-1,-1,-1,-1,-1,-1],"split_conditions":[3.5285E1,1.1945E1,1.0602722E-1,6.55E-1,2.0495368E-2,3.25E-1,7.1500003E-1,5E-3,4.355E0,6.95E-1,8.1E-1,-8.386367E-5,3.15E-1,1.575E0,2.007E3,5E-1,7.909713E-3,9E-2,8.95E-1,-2.9257115E-5,-2.55144E-4,1.4413244E-4,-4.9849006E-4,7.558823E-4,3.5669447E-3,-2.680814E-4,4.781318E-3,-3.8358895E-3,1.1099259E-3,3.2459947E-3,3.7359996E-4],"split_indices":[1,2,0,4,0,2,4,2,3,4,4,0,2,2,0,32,0,3,4,0,0,0,0,0,0,0,0,0,0,0,0],"split_type":[0,0,0,0,0,0,0,0,0,0,0,0,0,0,0,0,0,0,0,0,0,0,0,0,0,0,0,0,0,0,0],"sum_hessian":[1.1333E4,1.1332E4,1E0,1.1331E4,1E0,1.1225E4,1.06E2,1.008E4,1.145E3,1.7E1,8.9E1,3.909E3,6.171E3,1.143E3,2E0,1.3E1,4E0,1.6E1,7.3E1,6.137E3,3.4E1,1.072E3,7.1E1,1E0,1E0,1.1E1,2E0,8E0,8E0,1.1E1,6.2E1],"tree_param":{"num_deleted":"0","num_feature":"100","num_nodes":"31","size_leaf_vector":"0"}},{"base_weights":[2.9122489E-6,-5.010263E-5,3.0041027E-1,-6.035594E-5,5.8070183E-2,-6.5240296E-5,1.3788462E-2,-9.641765E-5,1.0146032E-3,1.6066551E-2,3.4770966E-3,-1.0599175E-4,1.9633418E-3,7.833361E-4,8.867734E-3,-9.9868266E-5,-8.47809E-3,2.572055E-3,-1.4236152E-2,1.0262436E-3,-4.8451056E-3,2.2249103E-3,1.3737011E-2],"categories":[],"categories_nodes":[],"categories_segments":[],"categories_sizes":[],"default_left":[1,1,0,1,0,1,1,1,1,0,0,1,1,1,1,0,0,0,0,0,0,0,0],"id":24,"left_children":[1,3,-1,5,-1,7,9,11,13,-1,-1,15,17,19,21,-1,-1,-1,-1,-1,-1,-1,-1],"loss_changes":[1.8052101E-1,6.757124E-3,0E0,7.6742563E-4,0E0,3.8150742E-4,3.8095866E-5,2.173686E-4,5.7059573E-4,0E0,0E0,5.611358E-4,5.39519E-4,4.2880126E-4,2.6054814E-4,0E0,0E0,0E0,0E0,0E0,0E0,0E0,0E0],"parents":[2147483647,0,0,1,1,3,3,5,5,6,6,7,7,8,8,11,11,12,12,13,13,14,14],"right_children":[2,4,-1,6,-1,8,10,12,14,-1,-1,16,18,20,22,-1,-1,-1,-1,-1,-1,-1,-1],"split_conditions":[3.5285E1,1.1945E1,9.012309E-2,9.059999E0,1.7421056E-2,3.05E-1,1.3565001E1,1.255E0,5E-1,4.8199655E-3,1.043129E-3,1.22E0,5E-1,3.345E0,1.72E0,-2.9960482E-5,-2.543427E-3,7.716165E-4,-4.270846E-3,3.0787307E-4,-1.4535317E-3,6.674731E-4,4.1211033E-3],"split_indices":[1,2,0,2,0,4,1,2,46,0,0,2,66,3,2,0,0,0,0,0,0,0,0],"split_type":[0,0,0,0,0,0,0,0,0,0,0,0,0,0,0,0,0,0,0,0,0,0,0],"sum_hessian":[1.1333E4,1.1332E4,1E0,1.1331E4,1E0,1.1328E4,3E0,1.1011E4,3.17E2,2E0,1E0,1.0961E4,5E1,3.09E2,8E0,1.0954E4,7E0,4.9E1,1E0,2.97E2,1.2E1,4E0,4E0],"tree_param":{"num_deleted":"0","num_feature":"100","num_nodes":"23","size_leaf_vector":"0"}},{"base_weights":[1.1830326E-5,-3.3231572E-5,2.5534916E-1,-4.194608E-5,4.93598E-2,-4.649994E-5,1.0283661E-2,-5.646478E-5,1.8907457E-3,1.2853305E-2,4.2861304E-3,-5.0478768E-5,-1.690495E-2,7.026025E-4,2.3439169E-2,-5.5389453E-5,1.3791859E-2,-1.9950867E-3,-3.081727E-2,6.5810084E-3,-8.8058575E-4],"categories":[],"categories_nodes":[],"categories_segments":[],"categories_sizes":[],"default_left":[1,1,0,1,0,1,1,1,1,0,0,1,1,1,0,0,0,0,0,0,0],"id":25,"left_children":[1,3,-1,5,-1,7,9,11,13,-1,-1,15,17,19,-1,-1,-1,-1,-1,-1,-1],"loss_changes":[1.3041732E-1,4.880202E-3,0E0,5.3332397E-4,0E0,2.1878642E-4,2.1966698E-5,1.1358865E-3,1.468483E-3,0E0,0E0,7.667104E-4,7.6823996E-4,5.2696606E-4,0E0,0E0,0E0,0E0,0E0,0E0,0E0],"parents":[2147483647,0,0,1,1,3,3,5,5,6,6,7,7,8,8,11,11,12,12,13,13],"right_children":[2,4,-1,6,-1,8,10,12,14,-1,-1,16,18,20,-1,-1,-1,-1,-1,-1,-1],"split_conditions":[3.5285E1,1.1945E1,7.6604754E-2,8.46E0,1.480794E-2,2.7849998E0,3.069E1,2.68E0,5E-1,3.8559916E-3,1.2858391E-3,2.62E0,2.008E3,4.5E-2,7.031751E-3,-1.6616837E-5,4.137558E-3,-5.9852604E-4,-9.245181E-3,1.9743026E-3,-2.6417573E-4],"split_indices":[1,2,0,2,0,2,5,2,57,0,0,2,0,3,0,0,0,0,0,0,0],"split_type":[0,0,0,0,0,0,0,0,0,0,0,0,0,0,0,0,0,0,0,0,0],"sum_hessian":[1.1333E4,1.1332E4,1E0,1.1331E4,1E0,1.1327E4,4E0,1.127E4,5.7E1,2E0,2E0,1.1267E4,3E0,5.5E1,2E0,1.1264E4,3E0,2E0,1E0,1.1E1,4.4E1],"tree_param":{"num_deleted":"0","num_feature":"100","num_nodes":"21","size_leaf_vector":"0"}},{"base_weights":[1.7067214E-5,-2.1234773E-5,2.1704674E-1,-2.8641509E-5,4.1955948E-2,-3.689657E-5,4.2168875E-3,-3.117551E-5,-2.8433385E-3,1.1433506E-2,1.978E-3,-3.869865E-5,2.120316E-2,-1.2344201E-2,4.8157905E-4,1.7868042E-2,5.3578615E-3,-5.3097727E-3,4.4394904E-3,-3.3448636E-5,-9.9031525E-3,-1.5031636E-2,-4.6462216E-3,1.5594721E-2,-1.3247658E-3,-8.171718E-3,-6.779035E-4,7.3569473E-3,-4.693389E-3],"categories":[],"categories_nodes":[],"categories_segments":[],"categories_sizes":[],"default_left":[1,1,0,1,0,1,1,1,1,1,1,1,0,1,1,0,0,1,1,0,0,0,0,0,0,0,0,0,0],"id":26,"left_children":[1,3,-1,5,-1,7,9,11,13,15,17,19,-1,21,23,-1,-1,25,27,-1,-1,-1,-1,-1,-1,-1,-1,-1,-1],"loss_changes":[9.4220385E-2,3.524789E-3,0E0,3.973094E-4,0E0,1.8151879E-4,3.3284284E-4,1.8042258E-3,7.325052E-4,9.9735276E-5,3.4647074E-4,5.841541E-4,0E0,5.428656E-5,5.1205116E-4,0E0,0E0,6.074115E-5,4.0755593E-4,0E0,0E0,0E0,0E0,0E0,0E0,0E0,0E0,0E0,0E0],"parents":[2147483647,0,0,1,1,3,3,5,5,6,6,7,7,8,8,9,9,10,10,11,11,13,13,14,14,17,17,18,18],"right_children":[2,4,-1,6,-1,8,10,12,14,16,18,20,-1,22,24,-1,-1,26,28,-1,-1,-1,-1,-1,-1,-1,-1,-1,-1],"split_conditions":[3.5285E1,1.1945E1,6.511402E-2,4.295E0,1.2586785E-2,3.2150002E0,4.4750004E0,3.125E0,3.395E0,2.0105E3,5.425E0,2.975E0,6.3609486E-3,3.295E0,3.43E0,5.360413E-3,1.6073586E-3,1.7099999E0,5E-1,-1.00345915E-5,-2.9709458E-3,-4.509491E-3,-1.3938665E-3,4.6784165E-3,-3.9742977E-4,-2.4515153E-3,-2.0337105E-4,2.2070843E-3,-1.4080168E-3],"split_indices":[1,2,0,2,0,2,2,2,2,0,2,2,0,2,2,0,0,3,52,0,0,0,0,0,0,0,0,0,0],"split_type":[0,0,0,0,0,0,0,0,0,0,0,0,0,0,0,0,0,0,0,0,0,0,0,0,0,0,0,0,0],"sum_hessian":[1.1333E4,1.1332E4,1E0,1.1331E4,1E0,1.131E4,2.1E1,1.1288E4,2.2E1,4E0,1.7E1,1.1285E4,3E0,5E0,1.7E1,1E0,3E0,4E0,1.3E1,1.128E4,5E0,3E0,2E0,1E0,1.6E1,2E0,2E0,1E1,3E0],"tree_param":{"num_deleted":"0","num_feature":"100","num_nodes":"29","size_leaf_vector":"0"}},{"base_weights":[1.9407596E-5,-1.3148742E-5,1.844902E-1,-1.9444053E-5,3.566265E-2,-2.6643096E-5,2.9958088E-3,-2.240297E-5,-8.00848E-3,-4.0866532E-3,3.7258721E-3,-2.6628319E-5,5.9455335E-3,-9.275484E-3,-8.3673E-4,7.948028E-3,1.2714443E-3,-2.1524578E-5,-9.624879E-3,9.884548E-3,-4.646182E-4,9.985328E-3,-4.175186E-3,-7.124106E-3,2.8657913E-3],"categories":[],"categories_nodes":[],"categories_segments":[],"categories_sizes":[],"default_left":[1,1,0,1,0,1,1,1,1,0,1,1,1,0,0,1,1,0,0,0,0,0,0,0,0],"id":27,"left_children":[1,3,-1,5,-1,7,9,11,13,-1,15,17,19,-1,-1,21,23,-1,-1,-1,-1,-1,-1,-1,-1],"loss_changes":[6.807096E-2,2.5459745E-3,0E0,2.4606282E-4,0E0,3.8246083E-4,1.5483379E-4,2.8513125E-4,4.675871E-5,0E0,2.4896892E-4,5.5305177E-4,2.0658999E-4,0E0,0E0,2.639782E-4,2.4796836E-4,0E0,0E0,0E0,0E0,0E0,0E0,0E0,0E0],"parents":[2147483647,0,0,1,1,3,3,5,5,6,6,7,7,8,8,10,10,11,11,12,12,15,15,16,16],"right_children":[2,4,-1,6,-1,8,10,12,14,-1,16,18,20,-1,-1,22,24,-1,-1,-1,-1,-1,-1,-1,-1],"split_conditions":[3.5285E1,1.1945E1,5.5347063E-2,3.885E0,1.0698795E-2,3.66E0,6.6400003E0,3.395E0,3.815E0,-1.2259961E-3,1.2915E1,3.2150002E0,6.2000003E0,-2.7826452E-3,-2.5101902E-4,1.9200001E0,1.3594999E1,-6.4573737E-6,-2.8874637E-3,2.9653646E-3,-1.3938546E-4,2.9955984E-3,-1.2525559E-3,-2.1372319E-3,8.5973745E-4],"split_indices":[1,2,0,2,0,2,5,2,2,0,5,2,1,0,0,4,5,0,0,0,0,0,0,0,0],"split_type":[0,0,0,0,0,0,0,0,0,0,0,0,0,0,0,0,0,0,0,0,0,0,0,0,0],"sum_hessian":[1.1333E4,1.1332E4,1E0,1.1331E4,1E0,1.1305E4,2.6E1,1.13E4,5E0,2E0,2.4E1,1.1293E4,7E0,4E0,1E0,8E0,1.6E1,1.1288E4,5E0,4E0,3E0,7E0,1E0,2E0,1.4E1],"tree_param":{"num_deleted":"0","num_feature":"100","num_nodes":"25","size_leaf_vector":"0"}},{"base_weights":[1.907058E-5,-8.602048E-6,1.5681648E-1,-1.3952792E-5,3.0313015E-2,-4.7005236E-5,5.45712E-4,-1.0977657E-4,4.7082132E-5,-5.741636E-3,6.050077E-4,-1.08104665E-4,-1.17049E-3,5.9331454E-5,-1.1078503E-3,8.1703067E-4,-7.2167753E-3,6.99812E-4,-3.0590706E-3,-1.0909177E-4,2.0363946E-3,5.1260475E-5,4.9314923E-3,-1.7135919E-3,9.715557E-5,-1.5022784E-3,8.564307E-4,-6.1233225E-4,-1.0246202E-2],"categories":[],"categories_nodes":[],"categories_segments":[],"categories_sizes":[],"default_left":[1,1,0,1,0,1,1,1,1,1,1,1,0,1,1,0,0,1,1,0,0,0,0,0,0,0,0,0,0],"id":28,"left_children":[1,3,-1,5,-1,7,9,11,13,15,17,19,-1,21,23,-1,-1,25,27,-1,-1,-1,-1,-1,-1,-1,-1,-1,-1],"loss_changes":[4.9179535E-2,1.8391253E-3,0E0,2.0964828E-4,0E0,6.320517E-5,2.3909118E-4,1.1256991E-5,6.0657938E-5,6.3946034E-5,2.1994203E-4,1.3791192E-5,0E0,1.6643788E-4,3.301298E-5,0E0,0E0,2.1235837E-4,2.750864E-4,0E0,0E0,0E0,0E0,0E0,0E0,0E0,0E0,0E0,0E0],"parents":[2147483647,0,0,1,1,3,3,5,5,6,6,7,7,8,8,9,9,10,10,11,11,13,13,14,14,17,17,18,18],"right_children":[2,4,-1,6,-1,8,10,12,14,16,18,20,-1,22,24,-1,-1,26,28,-1,-1,-1,-1,-1,-1,-1,-1,-1,-1],"split_conditions":[3.5285E1,1.1945E1,4.7044948E-2,5.85E-1,9.093905E-3,3.5E-2,5E-3,8.95E-1,5.55E-1,1.1E0,5E-1,6.55E-1,-3.5114703E-4,5.45E-1,5.75E-1,2.451092E-4,-2.1650328E-3,1.9975E3,5E-1,-3.2727534E-5,6.109184E-4,1.5378144E-5,1.4794477E-3,-5.140776E-4,2.9146673E-5,-4.5068352E-4,2.5692923E-4,-1.8369968E-4,-3.073861E-3],"split_indices":[1,2,0,2,0,2,4,4,2,5,92,4,0,2,2,0,0,0,38,0,0,0,0,0,0,0,0,0,0],"split_type":[0,0,0,0,0,0,0,0,0,0,0,0,0,0,0,0,0,0,0,0,0,0,0,0,0,0,0,0,0],"sum_hessian":[1.1333E4,1.1332E4,1E0,1.1331E4,1E0,1.07E4,6.31E2,6.418E3,4.282E3,5E0,6.26E2,6.409E3,9E0,4.238E3,4.4E1,1E0,4E0,6.11E2,1.5E1,6.407E3,2E0,4.232E3,6E0,2.9E1,1.5E1,4E1,5.71E2,1.2E1,3E0],"tree_param":{"num_deleted":"0","num_feature":"100","num_nodes":"29","size_leaf_vector":"0"}},{"base_weights":[1.7937056E-5,-5.584542E-6,1.332941E-1,-1.0132492E-5,2.5765896E-2,-1.897574E-5,1.6798488E-3,-1.3707775E-5,-8.496182E-3,8.720892E-4,1.6467333E-2,-1.7442735E-5,1.0508299E-2,1.5244484E-3,-2.2365173E-2,6.703649E-3,5.4579155E-5,-1.0035215E-5,-5.2247643E-3,-9.06229E-4,5.623579E-3,1.042517E-2,-7.812738E-3,-1.2754619E-2,1.1208752E-3],"categories":[],"categories_nodes":[],"categories_segments":[],"categories_sizes":[],"default_left":[1,1,0,1,0,1,1,1,1,1,0,1,0,1,0,1,1,0,0,0,0,0,0,0,0],"id":29,"left_children":[1,3,-1,5,-1,7,9,11,13,15,-1,17,-1,19,-1,21,23,-1,-1,-1,-1,-1,-1,-1,-1],"loss_changes":[3.5531346E-2,1.3285727E-3,0E0,1.6938774E-4,0E0,5.0335354E-4,6.9037825E-4,4.4300742E-4,1.0069269E-3,2.7137357E-4,0E0,4.3447618E-4,0E0,5.4914573E-5,0E0,4.5961046E-4,7.108747E-4,0E0,0E0,0E0,0E0,0E0,0E0,0E0,0E0],"parents":[2147483647,0,0,1,1,3,3,5,5,6,6,7,7,8,8,9,9,11,11,13,13,15,15,16,16],"right_children":[2,4,-1,6,-1,8,10,12,14,16,-1,18,-1,20,-1,22,24,-1,-1,-1,-1,-1,-1,-1,-1],"split_conditions":[3.5285E1,1.1945E1,3.9988235E-2,2.815E0,7.729769E-3,2.68E0,5E-1,2.62E0,1.02E0,2.975E0,4.9402E-3,2.335E0,3.15249E-3,2.008E3,-6.7095524E-3,5E-1,3.085E0,-3.0105648E-6,-1.5674294E-3,-2.7186872E-4,1.6870737E-3,3.1275512E-3,-2.3438216E-3,-3.8263858E-3,3.3626257E-4],"split_indices":[1,2,0,2,0,2,57,2,4,2,0,2,0,0,0,32,2,0,0,0,0,0,0,0,0],"split_type":[0,0,0,0,0,0,0,0,0,0,0,0,0,0,0,0,0,0,0,0,0,0,0,0,0],"sum_hessian":[1.1333E4,1.1332E4,1E0,1.1331E4,1E0,1.1273E4,5.8E1,1.1267E4,6E0,5.6E1,2E0,1.1264E4,3E0,4E0,2E0,6E0,5E1,1.1249E4,1.5E1,3E0,1E0,5E0,1E0,3E0,4.7E1],"tree_param":{"num_deleted":"0","num_feature":"100","num_nodes":"25","size_leaf_vector":"0"}},{"base_weights":[1.6636337E-5,-3.3569581E-6,1.1330032E-1,-7.2226144E-6,2.190113E-2,-9.38652E-6,6.1233044E-3,-4.2844745E-6,-2.5171884E-3,7.8427E-3,4.825592E-4,-9.49808E-6,9.817123E-3,-8.976752E-3,-6.848197E-4,-6.1007045E-6,-9.603858E-3,3.4160018E-3,1.5079577E-2,-2.2061367E-3,-1.27551155E-2,2.4320006E-3,-3.733158E-3],"categories":[],"categories_nodes":[],"categories_segments":[],"categories_sizes":[],"default_left":[1,1,0,1,0,1,1,1,1,0,0,1,1,1,1,0,0,0,0,0,0,0,0],"id":30,"left_children":[1,3,-1,5,-1,7,9,11,13,-1,-1,15,17,19,21,-1,-1,-1,-1,-1,-1,-1,-1],"loss_changes":[2.5670918E-2,9.597825E-4,0E0,1.5038645E-4,0E0,1.4494285E-4,3.5010104E-5,5.7906745E-4,2.6608747E-4,0E0,0E0,3.683373E-4,1.5060179E-4,9.976968E-5,1.8960038E-4,0E0,0E0,0E0,0E0,0E0,0E0,0E0,0E0],"parents":[2147483647,0,0,1,1,3,3,5,5,6,6,7,7,8,8,11,11,12,12,13,13,14,14],"right_children":[2,4,-1,6,-1,8,10,12,14,-1,-1,16,18,20,22,-1,-1,-1,-1,-1,-1,-1,-1],"split_conditions":[3.5285E1,1.1945E1,3.39901E-2,9.059999E0,6.5703397E-3,6.395E0,1.3565001E1,5.9449997E0,1.0045E1,2.35281E-3,1.4476776E-4,5.82E0,2.006E3,2.007E3,1.565E0,-1.8302114E-6,-2.8811574E-3,1.0248006E-3,4.5238733E-3,-6.61841E-4,-3.8265348E-3,7.296002E-4,-1.1199475E-3],"split_indices":[1,2,0,2,0,1,1,1,5,0,0,1,0,0,3,0,0,0,0,0,0,0,0],"split_type":[0,0,0,0,0,0,0,0,0,0,0,0,0,0,0,0,0,0,0,0,0,0,0],"sum_hessian":[1.1333E4,1.1332E4,1E0,1.1331E4,1E0,1.1328E4,3E0,1.1306E4,2.2E1,2E0,1E0,1.1301E4,5E0,4E0,1.8E1,1.1298E4,3E0,3E0,2E0,2E0,2E0,9E0,9E0],"tree_param":{"num_deleted":"0","num_feature":"100","num_nodes":"23","size_leaf_vector":"0"}},{"base_weights":[1.5249166E-5,-1.7449696E-6,9.630489E-2,-5.0306376E-6,1.8615723E-2,-2.4362364E-5,6.016133E-4,-1.8780385E-5,-1.0233462E-2,2.4904609E-3,1.2894091E-4,-2.0226638E-5,7.928371E-3,-1.5198588E-3,-1.8440446E-2,2.7161656E-4,7.0128115E-3,1.3491029E-3,-9.766716E-4,-1.8429857E-5,-6.5867105E-3,-2.5787354E-3,8.2838535E-4,8.8973646E-4,-6.7501366E-3,1.4437728E-2,1.9074269E-4,3.826045E-4,4.9943253E-3,-7.498041E-4,-1.7163098E-2],"categories":[],"categories_nodes":[],"categories_segments":[],"categories_sizes":[],"default_left":[1,1,0,1,0,1,1,1,1,1,1,1,0,1,0,1,1,1,1,0,0,0,0,0,0,0,0,0,0,0,0],"id":31,"left_children":[1,3,-1,5,-1,7,9,11,13,15,17,19,-1,21,-1,23,25,27,29,-1,-1,-1,-1,-1,-1,-1,-1,-1,-1,-1,-1],"loss_changes":[1.8546665E-2,6.9334253E-4,0E0,1.3291038E-4,0E0,6.2569574E-4,3.12161E-4,1.2633705E-4,4.0104747E-4,7.0050266E-4,3.8039408E-4,1.2939115E-4,0E0,1.2082189E-5,0E0,2.1433955E-4,1.1622716E-3,4.7018472E-4,5.306128E-4,0E0,0E0,0E0,0E0,0E0,0E0,0E0,0E0,0E0,0E0,0E0,0E0],"parents":[2147483647,0,0,1,1,3,3,5,5,6,6,7,7,8,8,9,9,10,10,11,11,13,13,15,15,16,16,17,17,18,18],"right_children":[2,4,-1,6,-1,8,10,12,14,16,18,20,-1,22,-1,24,26,28,30,-1,-1,-1,-1,-1,-1,-1,-1,-1,-1,-1,-1],"split_conditions":[3.5285E1,1.1945E1,2.8891468E-2,2.8649998E0,5.584717E-3,1.42E0,1.315E0,1.38E0,2.01E3,5.85E-1,3.85E-1,1.335E0,2.3785115E-3,2.003E3,-5.532134E-3,5.4499996E-1,5E-1,3.05E-1,5E-1,-5.5289574E-6,-1.9760132E-3,-7.736206E-4,2.4851563E-4,2.6692095E-4,-2.025041E-3,4.3313187E-3,5.722281E-5,1.1478136E-4,1.4982977E-3,-2.2494124E-4,-5.1489295E-3],"split_indices":[1,2,0,5,0,2,1,2,0,4,4,2,0,0,0,4,47,4,98,0,0,0,0,0,0,0,0,0,0,0,0],"split_type":[0,0,0,0,0,0,0,0,0,0,0,0,0,0,0,0,0,0,0,0,0,0,0,0,0,0,0,0,0,0,0],"sum_hessian":[1.1333E4,1.1332E4,1E0,1.1331E4,1E0,1.0982E4,3.49E2,1.0977E4,5E0,6.9E1,2.8E2,1.0976E4,1E0,3E0,2E0,4.7E1,2.2E1,1.33E2,1.47E2,1.0974E4,2E0,2E0,1E0,4.4E1,3E0,1E1,1.2E1,1.06E2,2.7E1,1.46E2,1E0],"tree_param":{"num_deleted":"0","num_feature":"100","num_nodes":"31","size_leaf_vector":"0"}},{"base_weights":[1.3117595E-5,-1.3274827E-6,8.185959E-2,-5.914831E-6,1.0392952E-2,-3.0806468E-6,-3.2136198E-3,1.5833536E-2,1.4880499E-3,-6.480202E-6,9.615881E-3,-5.5717994E-3,-7.1286707E-4,-1.1846662E-6,-2.067681E-3,-5.441047E-4,1.3183911E-2,-3.1698958E-4,-6.8062544E-3,-1.0967201E-3,6.03199E-4,-9.188918E-6,4.50927E-3,-6.8176854E-3,6.6496075E-5],"categories":[],"categories_nodes":[],"categories_segments":[],"categories_sizes":[],"default_left":[1,1,0,1,1,1,1,0,0,1,1,1,1,1,1,0,0,0,0,0,0,0,0,0,0],"id":32,"left_children":[1,3,-1,5,7,9,11,-1,-1,13,15,17,19,21,23,-1,-1,-1,-1,-1,-1,-1,-1,-1,-1],"loss_changes":[1.3400054E-2,5.4044364E-4,0E0,1.0298461E-4,2.1867827E-4,3.7022852E-4,5.5000288E-5,0E0,0E0,1.2352444E-4,1.5217796E-4,3.0276613E-5,3.692596E-6,4.076061E-4,2.9443653E-4,0E0,0E0,0E0,0E0,2.950319E-7,0E0,0E0,0E0,0E0,0E0],"parents":[2147483647,0,0,1,1,3,3,4,4,5,5,6,6,9,9,10,10,11,11,12,12,13,13,14,14],"right_children":[2,4,-1,6,8,10,12,-1,-1,14,16,18,20,22,24,-1,-1,-1,-1,-1,-1,-1,-1,-1,-1],"split_conditions":[3.5285E1,9.059999E0,2.4557877E-2,1.875E0,2.0085E3,1.765E0,2.205E0,4.750061E-3,4.4641498E-4,5.465E0,3.18E0,2.0045E3,2.012E3,8.085E0,1.0045E1,-1.6323142E-4,3.955174E-3,-9.5096875E-5,-2.0418763E-3,-3.2901604E-4,1.809597E-4,-2.7566755E-6,1.3527811E-3,-2.0453057E-3,1.9948824E-5],"split_indices":[1,2,0,4,0,4,4,0,0,1,1,0,0,5,5,0,0,0,0,0,0,0,0,0,0],"split_type":[0,0,0,0,0,0,0,0,0,0,0,0,0,0,0,0,0,0,0,0,0,0,0,0,0],"sum_hessian":[1.1333E4,1.1332E4,1E0,1.1328E4,4E0,1.1319E4,9E0,2E0,2E0,1.1316E4,3E0,4E0,5E0,1.1288E4,2.8E1,1E0,2E0,1E0,3E0,4E0,1E0,1.1269E4,1.9E1,8E0,2E1],"tree_param":{"num_deleted":"0","num_feature":"100","num_nodes":"25","size_leaf_vector":"0"}},{"base_weights":[1.1879567E-5,-3.9875152E-7,6.958103E-2,-4.855856E-6,7.2118896E-3,-1.7555179E-6,-4.391227E-3,3.931125E-3,1.3448238E-2,-1.0141659E-5,1.1619726E-3,-5.2888393E-3,-1.1322597E-3,5.0643086E-3,1.1098385E-3,-5.0926883E-6,-1.13541605E-2,1.10025145E-2,-6.716219E-5,-7.990071E-6,8.132756E-3,-1.4582236E-2,-4.341364E-3,1.9572973E-3,1.5198906E-2,-1.4263106E-2,9.6250273E-4],"categories":[],"categories_nodes":[],"categories_segments":[],"categories_sizes":[],"default_left":[1,1,0,1,1,1,1,1,0,1,1,0,0,0,0,1,1,1,1,0,0,0,0,0,0,0,0],"id":33,"left_children":[1,3,-1,5,7,9,11,13,-1,15,17,-1,-1,-1,-1,19,21,23,25,-1,-1,-1,-1,-1,-1,-1,-1],"loss_changes":[9.681443E-3,3.643447E-4,0E0,1.5403079E-4,9.035328E-5,1.104858E-4,1.7413971E-5,1.3561643E-5,0E0,6.437201E-4,9.804626E-4,0E0,0E0,0E0,2.1223036E-7,2.6499256E-4,4.9882452E-5,3.1186664E-4,1.080774E-3,0E0,0E0,0E0,0E0,0E0,0E0,0E0,0E0],"parents":[2147483647,0,0,1,1,3,3,4,4,5,5,6,6,7,7,9,9,10,10,15,15,16,16,17,17,18,18],"right_children":[2,4,-1,6,8,10,12,14,-1,16,18,-1,-1,-1,-1,20,22,24,26,-1,-1,-1,-1,-1,-1,-1,-1],"split_conditions":[3.5285E1,2.9315E1,2.087431E-2,8.73E0,1.1945E1,2.24E0,2.205E0,3.2185E1,4.0344717E-3,2.17E0,2.335E0,-1.5866519E-3,-3.3967794E-4,1.5192927E-3,3.3295155E-4,2.12E0,2.2150002E0,2.28E0,2.41E0,-2.3970215E-6,2.4398267E-3,-4.3746713E-3,-1.3024092E-3,5.871892E-4,4.559672E-3,-4.2789318E-3,2.8875083E-4],"split_indices":[1,5,0,1,2,2,4,5,0,2,2,0,0,0,0,2,2,2,2,0,0,0,0,0,0,0,0],"split_type":[0,0,0,0,0,0,0,0,0,0,0,0,0,0,0,0,0,0,0,0,0,0,0,0,0,0,0],"sum_hessian":[1.1333E4,1.1332E4,1E0,1.1326E4,6E0,1.1319E4,7E0,5E0,1E0,1.1239E4,8E1,5E0,2E0,3E0,2E0,1.1235E4,4E0,8E0,7.2E1,1.1232E4,3E0,2E0,2E0,3E0,5E0,4E0,6.8E1],"tree_param":{"num_deleted":"0","num_feature":"100","num_nodes":"27","size_leaf_vector":"0"}},{"base_weights":[1.0321619E-5,-1.1495726E-7,5.914402E-2,-2.1324784E-6,1.1431217E-2,-4.396095E-5,1.442265E-4,-1.8757535E-5,-3.2387313E-4,1.3720896E-4,3.0605395E-3,-5.1999315E-5,1.1701747E-3,-1.4503152E-3,-6.5539575E-6,1.5466604E-4,-2.436025E-3,3.6194324E-3,1.3303757E-4,-5.03939E-5,-1.0988106E-3,1.1776168E-3,2.3932506E-4,9.787879E-5,-4.0652894E-4,1.1253253E-4,1.2938469E-3,-3.744782E-3,4.9197674E-3],"categories":[],"categories_nodes":[],"categories_segments":[],"categories_sizes":[],"default_left":[1,1,0,1,0,1,1,1,1,1,1,1,1,0,1,1,1,0,0,0,0,0,0,0,0,0,0,0,0],"id":34,"left_children":[1,3,-1,5,-1,7,9,11,13,15,17,19,21,-1,23,25,27,-1,-1,-1,-1,-1,-1,-1,-1,-1,-1,-1,-1],"loss_changes":[6.994823E-3,2.6139684E-4,0E0,6.938054E-5,0E0,6.217444E-5,5.1132298E-5,3.1967708E-4,2.6020803E-4,1.1330852E-4,9.335443E-6,1.3167315E-5,1.2422097E-6,0E0,2.3807197E-5,1.1975263E-4,1.820815E-4,4.885442E-7,0E0,0E0,0E0,0E0,0E0,0E0,0E0,0E0,0E0,0E0,0E0],"parents":[2147483647,0,0,1,1,3,3,5,5,6,6,7,7,8,8,9,9,10,10,11,11,12,12,14,14,15,15,16,16],"right_children":[2,4,-1,6,-1,8,10,12,14,16,18,20,22,-1,24,26,28,-1,-1,-1,-1,-1,-1,-1,-1,-1,-1,-1,-1],"split_conditions":[3.5285E1,1.1945E1,1.7743208E-2,1.3499999E-1,3.4293653E-3,8.5E-2,2.9315E1,7.5E-2,9.5E-2,3.345E0,2.0075E3,8.95E-1,3.05E-1,-4.3509458E-4,1.25E-1,2.94E0,5E-1,1.0858298E-3,3.9911272E-5,-1.5118171E-5,-3.296432E-4,3.5328505E-4,7.179752E-5,2.9363637E-5,-1.21958685E-4,3.375976E-5,3.881541E-4,-1.1234346E-3,1.4759303E-3],"split_indices":[1,2,0,2,0,2,5,2,2,3,0,4,4,0,2,1,46,0,0,0,0,0,0,0,0,0,0,0,0],"split_type":[0,0,0,0,0,0,0,0,0,0,0,0,0,0,0,0,0,0,0,0,0,0,0,0,0,0,0,0,0],"sum_hessian":[1.1333E4,1.1332E4,1E0,1.1331E4,1E0,8.813E3,2.518E3,8.086E3,7.27E2,2.513E3,5E0,7.867E3,2.19E2,1.59E2,5.68E2,2.497E3,1.6E1,4E0,1E0,7.856E3,1.1E1,2.17E2,2E0,4.51E2,1.17E2,2.409E3,8.8E1,1.4E1,2E0],"tree_param":{"num_deleted":"0","num_feature":"100","num_nodes":"29","size_leaf_vector":"0"}},{"base_weights":[9.221199E-6,3.502249E-7,5.0271988E-2,-1.3646243E-6,9.716511E-3,2.157368E-6,-9.95677E-4,-1.2363241E-6,9.580314E-3,-3.1306364E-3,1.2958143E-3,1.9974216E-6,-4.561876E-3,1.2095849E-2,1.0168552E-3,8.299452E-4,-5.170209E-3,4.1057505E-3,-5.330554E-4,-1.0945982E-6,8.720994E-3,8.779052E-3,-1.4322243E-2,-4.4467693E-4,3.102541E-3,-5.7956255E-3,1.4801025E-3,4.265361E-4,1.0095596E-2,-1.7949427E-3,2.7549267E-3],"categories":[],"categories_nodes":[],"categories_segments":[],"categories_sizes":[],"default_left":[1,1,0,1,0,1,1,1,1,1,1,1,1,0,0,1,1,1,1,0,0,0,0,0,0,0,0,0,0,0,0],"id":35,"left_children":[1,3,-1,5,-1,7,9,11,13,15,17,19,21,-1,-1,23,25,27,29,-1,-1,-1,-1,-1,-1,-1,-1,-1,-1,-1,-1],"loss_changes":[5.053583E-3,1.8884087E-4,0E0,3.9686365E-5,0E0,3.6709438E-4,1.9974637E-4,1.6651345E-4,7.3867006E-5,1.7392676E-4,1.04968756E-4,3.0419143E-4,1.1674345E-3,0E0,0E0,2.4553234E-5,6.6807086E-5,1.7199726E-4,5.8882753E-5,0E0,0E0,0E0,0E0,0E0,0E0,0E0,0E0,0E0,0E0,0E0,0E0],"parents":[2147483647,0,0,1,1,3,3,5,5,6,6,7,7,8,8,9,9,10,10,11,11,12,12,15,15,16,16,17,17,18,18],"right_children":[2,4,-1,6,-1,8,10,12,14,16,18,20,22,-1,-1,24,26,28,30,-1,-1,-1,-1,-1,-1,-1,-1,-1,-1,-1,-1],"split_conditions":[3.5285E1,1.1945E1,1.5081597E-2,1.125E0,2.9149533E-3,1.095E0,1.655E0,1.045E0,5.55E0,3.06E0,1.875E0,1.025E0,6E-2,3.6287548E-3,3.0505657E-4,1.7800001E0,5.94E0,4.44E0,8.629999E0,-3.2837949E-7,2.6162984E-3,2.6337155E-3,-4.296673E-3,-1.3340308E-4,9.307623E-4,-1.7386877E-3,4.4403077E-4,1.2796084E-4,3.028679E-3,-5.384828E-4,8.2647806E-4],"split_indices":[1,2,0,4,0,4,4,4,1,2,4,4,3,0,0,1,2,1,2,0,0,0,0,0,0,0,0,0,0,0,0],"split_type":[0,0,0,0,0,0,0,0,0,0,0,0,0,0,0,0,0,0,0,0,0,0,0,0,0,0,0,0,0,0,0],"sum_hessian":[1.1333E4,1.1332E4,1E0,1.1331E4,1E0,1.1292E4,3.9E1,1.1289E4,3E0,2E1,1.9E1,1.1282E4,7E0,2E0,1E0,7E0,1.3E1,7E0,1.2E1,1.1279E4,3E0,3E0,4E0,5E0,2E0,1.2E1,1E0,5E0,2E0,9E0,3E0],"tree_param":{"num_deleted":"0","num_feature":"100","num_nodes":"31","size_leaf_vector":"0"}},{"base_weights":[8.734578E-6,1.1943122E-6,4.2731285E-2,-2.6319267E-7,8.25882E-3,-1.4648445E-5,2.7440887E-4,-3.7067355E-6,-1.7889729E-3,1.3452792E-3,-3.9883587E-5,-7.5745293E-6,1.0344535E-2,-4.6869717E-3,-4.2708282E-4,1.002665E-3,1.1715651E-2,4.8166735E-4,-8.859939E-4,-3.2417673E-5,8.8381465E-5,-1.9153306E-3,-7.5442432E-3,8.122758E-5,-7.739941E-3,1.5802729E-3,-5.7978528E-3,1.3347109E-2,3.4106374E-3,1.01653335E-4,3.4204323E-3,-7.153941E-4,-1.460278E-2],"categories":[],"categories_nodes":[],"categories_segments":[],"categories_sizes":[],"default_left":[1,1,0,1,0,1,1,1,1,1,1,1,0,1,1,1,1,1,1,0,0,0,0,0,0,0,0,0,0,0,0,0,0],"id":36,"left_children":[1,3,-1,5,-1,7,9,11,13,15,17,19,-1,21,23,25,27,29,31,-1,-1,-1,-1,-1,-1,-1,-1,-1,-1,-1,-1,-1,-1],"loss_changes":[3.6510767E-3,1.3640082E-4,0E0,4.4779325E-5,0E0,2.0906427E-4,1.8987714E-4,4.285045E-4,2.5848416E-4,4.4304167E-4,1.9327033E-4,2.5512427E-5,0E0,1.5185628E-4,1.7161999E-4,5.0016626E-4,8.674979E-6,3.0229747E-4,3.8034676E-4,0E0,0E0,0E0,0E0,0E0,0E0,0E0,0E0,0E0,0E0,0E0,0E0,0E0,0E0],"parents":[2147483647,0,0,1,1,3,3,5,5,6,6,7,7,8,8,9,9,10,10,11,11,13,13,14,14,15,15,16,16,17,17,18,18],"right_children":[2,4,-1,6,-1,8,10,12,14,16,18,20,-1,22,24,26,28,30,32,-1,-1,-1,-1,-1,-1,-1,-1,-1,-1,-1,-1,-1,-1],"split_conditions":[3.5285E1,1.1945E1,1.2819386E-2,2.065E0,2.4776459E-3,8.75E-1,1.025E0,8.65E-1,2.0045E3,5E-1,3.85E-1,1.14999995E-1,3.1033608E-3,1.25E-1,5E-1,2.0145E3,2.0135E3,3.15E-1,5E-1,-9.725302E-6,2.651444E-5,-5.745992E-4,-2.263273E-3,2.4368275E-5,-2.3219825E-3,4.740819E-4,-1.7393559E-3,4.004133E-3,1.0231913E-3,3.0496001E-5,1.0261297E-3,-2.1461824E-4,-4.3808343E-3],"split_indices":[1,2,0,5,0,2,1,2,0,95,4,2,0,4,84,0,0,4,98,0,0,0,0,0,0,0,0,0,0,0,0,0,0],"split_type":[0,0,0,0,0,0,0,0,0,0,0,0,0,0,0,0,0,0,0,0,0,0,0,0,0,0,0,0,0,0,0,0,0],"sum_hessian":[1.1333E4,1.1332E4,1E0,1.1331E4,1E0,1.0768E4,5.63E2,1.0703E4,6.5E1,1.27E2,4.36E2,1.07E4,3E0,2E1,4.5E1,1.24E2,3E0,2.7E2,1.66E2,8.5E3,2.2E3,1.1E1,9E0,4.3E1,2E0,1.15E2,9E0,2E0,1E0,2.4E2,3E1,1.65E2,1E0],"tree_param":{"num_deleted":"0","num_feature":"100","num_nodes":"33","size_leaf_vector":"0"}},{"base_weights":[7.3045053E-6,8.952599E-7,3.632164E-2,-1.1542892E-6,4.644585E-3,-6.5849063E-6,5.8505015E-4,7.308642E-3,4.3233237E-4,3.8538474E-6,-1.3912569E-3,4.8099766E-3,-2.9579728E-4,5.7895726E-8,6.0426625E-3,-2.3187874E-3,4.974972E-3,7.4506766E-4,1.5229726E-2,-4.8923492E-3,1.05087434E-4,-8.387335E-6,1.2627331E-3,1.2970448E-2,6.7745894E-4,-6.1052875E-3,-3.7916168E-4,6.745398E-3,1.9037724E-4,-5.7414584E-3,3.0360708E-3,5.080223E-3,-9.897423E-3,3.2694417E-4,-8.821726E-3],"categories":[],"categories_nodes":[],"categories_segments":[],"categories_sizes":[],"default_left":[1,1,0,1,1,1,1,0,0,1,1,1,1,1,1,1,1,1,0,1,1,0,0,0,0,0,0,0,0,0,0,0,0,0,0],"id":37,"left_children":[1,3,-1,5,7,9,11,-1,-1,13,15,17,19,21,23,25,27,29,-1,31,33,-1,-1,-1,-1,-1,-1,-1,-1,-1,-1,-1,-1,-1,-1],"loss_changes":[2.6379274E-3,1.0786685E-4,0E0,3.6069174E-5,5.2948642E-5,1.6226876E-4,3.8846038E-4,0E0,9.3049647E-7,2.5543093E-4,5.075452E-4,7.5104873E-4,1.6082791E-4,1.1877092E-4,2.513959E-4,5.4117024E-4,9.18943E-5,2.2548062E-4,0E0,3.9967534E-4,1.633026E-4,0E0,0E0,0E0,0E0,0E0,0E0,0E0,0E0,0E0,0E0,0E0,0E0,0E0,0E0],"parents":[2147483647,0,0,1,1,3,3,4,4,5,5,6,6,9,9,10,10,11,11,12,12,13,13,14,14,15,15,16,16,17,17,19,19,20,20],"right_children":[2,4,-1,6,8,10,12,-1,-1,14,16,18,20,22,24,26,28,30,-1,32,34,-1,-1,-1,-1,-1,-1,-1,-1,-1,-1,-1,-1,-1,-1],"split_conditions":[3.5285E1,9.059999E0,1.0896493E-2,6.55E-1,2.0085E3,4.45E-1,7.1500003E-1,2.1925927E-3,1.2969972E-4,4.35E-1,5E-1,7E-2,7.4E-1,4.0950003E0,2.0055E3,4.95E-1,5.65E-1,7.5E-1,4.568918E-3,1.9300001E0,5E-1,-2.5162005E-6,3.7881997E-4,3.8911344E-3,2.032377E-4,-1.8315864E-3,-1.1374851E-4,2.0236196E-3,5.711317E-5,-1.7224376E-3,9.108213E-4,1.524067E-3,-2.969227E-3,9.8083256E-5,-2.646518E-3],"split_indices":[1,2,0,4,0,4,4,0,0,4,34,3,4,5,0,4,4,1,0,1,97,0,0,0,0,0,0,0,0,0,0,0,0,0,0],"split_type":[0,0,0,0,0,0,0,0,0,0,0,0,0,0,0,0,0,0,0,0,0,0,0,0,0,0,0,0,0,0,0,0,0,0,0],"sum_hessian":[1.1333E4,1.1332E4,1E0,1.1328E4,4E0,1.1225E4,1.03E2,2E0,2E0,1.1142E4,8.3E1,1.7E1,8.6E1,1.1136E4,6E0,7.3E1,1E1,1.3E1,4E0,6E0,8E1,1.1063E4,7.3E1,2E0,4E0,2.4E1,4.9E1,7E0,3E0,3E0,1E1,2E0,4E0,7.9E1,1E0],"tree_param":{"num_deleted":"0","num_feature":"100","num_nodes":"35","size_leaf_vector":"0"}},{"base_weights":[6.6636985E-6,1.2158972E-6,3.0873299E-2,-8.00029E-7,3.263099E-3,3.73995E-7,-6.648898E-3,3.8929384E-3,-2.579689E-4,1.4612854E-6,-3.0775666E-3,1.4541745E-3,5.8469772E-3,-4.322675E-6,8.042712E-4,-4.0004253E-3,-1.5449524E-4,-4.1731175E-7,-6.2729293E-3,1.020503E-2,-8.385658E-5],"categories":[],"categories_nodes":[],"categories_segments":[],"categories_sizes":[],"default_left":[1,1,0,1,1,1,0,1,0,1,1,0,0,1,1,0,0,0,0,0,0],"id":38,"left_children":[1,3,-1,5,7,9,-1,11,-1,13,15,-1,-1,17,19,-1,-1,-1,-1,-1,-1],"loss_changes":[1.9058347E-3,7.452519E-5,0E0,8.841003E-5,1.6528218E-5,3.790826E-5,0E0,2.0090112E-5,0E0,5.2580934E-5,1.017228E-5,0E0,0E0,2.7523935E-4,6.771309E-4,0E0,0E0,0E0,0E0,0E0,0E0],"parents":[2147483647,0,0,1,1,3,3,4,4,5,5,7,7,9,9,10,10,13,13,14,14],"right_children":[2,4,-1,6,8,10,-1,12,-1,14,16,-1,-1,18,20,-1,-1,-1,-1,-1,-1],"split_conditions":[3.5285E1,2.9315E1,9.26199E-3,5.5150003E0,2.0085E3,9.675E0,-1.9946694E-3,2.001E3,-7.739067E-5,2.2649999E0,2.007E3,4.3625236E-4,1.7540932E-3,2.17E0,2.335E0,-1.2001276E-3,-4.6348574E-5,-1.2519354E-7,-1.8818788E-3,3.0615092E-3,-2.5156976E-5],"split_indices":[1,5,0,3,0,1,0,0,0,2,0,0,0,2,2,0,0,0,0,0,0],"split_type":[0,0,0,0,0,0,0,0,0,0,0,0,0,0,0,0,0,0,0,0,0],"sum_hessian":[1.1333E4,1.1332E4,1E0,1.1326E4,6E0,1.1325E4,1E0,5E0,1E0,1.1322E4,3E0,3E0,2E0,1.1242E4,8E1,2E0,1E0,1.1236E4,6E0,6E0,7.4E1],"tree_param":{"num_deleted":"0","num_feature":"100","num_nodes":"21","size_leaf_vector":"0"}},{"base_weights":[5.48383E-6,8.531914E-7,2.6242256E-2,-3.7457703E-8,5.0468445E-3,6.4554447E-6,-3.9564306E-4,1.0343331E-5,-1.796335E-3,-2.049126E-4,-8.879602E-3,6.324018E-6,1.1185467E-2,-3.6776487E-3,2.4259984E-3,-9.995937E-3,-9.4370924E-5,-1.236558E-2,7.891655E-4,8.948028E-6,-7.2906613E-3,-6.139338E-3,-1.3405323E-3,-8.5071725E-4,8.170764E-3,2.8380446E-5,-7.3052444E-3],"categories":[],"categories_nodes":[],"categories_segments":[],"categories_sizes":[],"default_left":[1,1,0,1,0,1,1,1,1,1,1,1,0,1,1,0,1,0,0,0,0,0,0,0,0,0,0],"id":39,"left_children":[1,3,-1,5,-1,7,9,11,13,15,17,19,-1,21,23,-1,25,-1,-1,-1,-1,-1,-1,-1,-1,-1,-1],"loss_changes":[1.3769794E-3,5.0933042E-5,0E0,2.911025E-5,0E0,7.816943E-5,2.9430178E-4,4.997132E-4,1.9956677E-4,1.9387362E-4,1.445789E-4,2.1306053E-4,0E0,8.957536E-5,1.575427E-4,0E0,1.5864821E-4,0E0,0E0,0E0,0E0,0E0,0E0,0E0,0E0,0E0,0E0],"parents":[2147483647,0,0,1,1,3,3,5,5,6,6,7,7,8,8,9,9,10,10,11,11,13,13,14,14,16,16],"right_children":[2,4,-1,6,-1,8,10,12,14,16,18,20,-1,22,24,-1,26,-1,-1,-1,-1,-1,-1,-1,-1,-1,-1],"split_conditions":[3.5285E1,1.1945E1,7.872677E-3,9.35E-1,1.5140534E-3,3.22E0,5E-1,3.12E0,5.6549997E0,9.45E-1,2.011E3,2.975E0,3.3556402E-3,3.83E0,4.1E-1,-2.9987814E-3,5E-1,-3.709674E-3,2.3674966E-4,2.6844086E-6,-2.1871985E-3,-1.8418015E-3,-4.0215973E-4,-2.552152E-4,2.4512294E-3,8.514134E-6,-2.1915734E-3],"split_indices":[1,2,0,3,0,2,23,2,1,3,0,2,0,2,3,0,13,0,0,0,0,0,0,0,0,0,0],"split_type":[0,0,0,0,0,0,0,0,0,0,0,0,0,0,0,0,0,0,0,0,0,0,0,0,0,0,0],"sum_hessian":[1.1333E4,1.1332E4,1E0,1.1331E4,1E0,1.1149E4,1.82E2,1.1126E4,2.3E1,1.79E2,3E0,1.1123E4,3E0,1.6E1,7E0,1E0,1.78E2,2E0,1E0,1.112E4,3E0,7E0,9E0,5E0,2E0,1.76E2,2E0],"tree_param":{"num_deleted":"0","num_feature":"100","num_nodes":"27","size_leaf_vector":"0"}},{"base_weights":[4.001753E-6,6.5727704E-8,2.2305489E-2,-4.9046134E-6,8.892824E-4,-8.231597E-7,-1.1501133E-2,4.1151437E-4,1.0307471E-2,-3.085128E-6,6.3696504E-3,-1.4757315E-3,-2.078867E-2,4.777125E-3,-1.5159087E-4,8.452296E-7,-3.161749E-3,2.3007393E-5,-2.2366047E-3,-2.1541913E-3,7.98049E-3,-2.344519E-3,7.293701E-4,-7.2266175E-6,2.3217902E-3,-8.810373E-4,-8.64327E-3,1.1187951E-2,2.1128654E-3,-7.1483E-4,-9.168227E-3,7.7548027E-3,1.5553675E-4],"categories":[],"categories_nodes":[],"categories_segments":[],"categories_sizes":[],"default_left":[1,1,0,1,1,1,1,1,0,1,0,1,0,1,1,1,1,0,0,0,1,1,1,0,0,0,0,0,0,0,0,0,0],"id":40,"left_children":[1,3,-1,5,7,9,11,13,-1,15,-1,17,-1,19,21,23,25,-1,-1,-1,27,29,31,-1,-1,-1,-1,-1,-1,-1,-1,-1,-1],"loss_changes":[9.948881E-4,5.009294E-5,0E0,5.2884076E-4,2.7924002E-4,1.6238936E-4,3.4176663E-4,1.5068037E-4,0E0,1.3985403E-4,0E0,3.4725085E-6,0E0,1.7261623E-4,1.0796364E-4,2.1081527E-4,1.6740969E-4,0E0,0E0,0E0,7.0462265E-5,1.7137462E-4,1.6005096E-4,0E0,0E0,0E0,0E0,0E0,0E0,0E0,0E0,0E0,0E0],"parents":[2147483647,0,0,1,1,3,3,4,4,5,5,6,6,7,7,9,9,11,11,13,13,14,14,15,15,16,16,20,20,21,21,22,22],"right_children":[2,4,-1,6,8,10,12,14,-1,16,-1,18,-1,20,22,24,26,-1,-1,-1,28,30,32,-1,-1,-1,-1,-1,-1,-1,-1,-1,-1],"split_conditions":[3.5285E1,2.7849998E0,6.6916468E-3,2.68E0,5E-1,2.62E0,2.008E3,5.1E-1,3.0922415E-3,8.455E0,1.9108952E-3,2.0035E3,-6.236601E-3,3.95E-1,8.5E-1,6.95E-1,5E-1,6.902218E-6,-6.709814E-4,-6.462574E-4,4.9700003E0,5E-1,4.5E-2,-2.1679853E-6,6.965371E-4,-2.643112E-4,-2.5929809E-3,3.3563855E-3,6.3385966E-4,-2.1444901E-4,-2.7504682E-3,2.326441E-3,4.6661025E-5],"split_indices":[1,2,0,2,57,2,0,4,0,5,0,0,0,4,4,4,34,0,0,0,1,95,3,0,0,0,0,0,0,0,0,0,0],"split_type":[0,0,0,0,0,0,0,0,0,0,0,0,0,0,0,0,0,0,0,0,0,0,0,0,0,0,0,0,0,0,0,0,0],"sum_hessian":[1.1333E4,1.1332E4,1E0,1.127E4,6.2E1,1.1267E4,3E0,6E1,2E0,1.1264E4,3E0,2E0,1E0,6E0,5.4E1,1.1251E4,1.3E1,1E0,1E0,2E0,4E0,1.5E1,3.9E1,1.1213E4,3.8E1,1E1,3E0,2E0,2E0,1.3E1,2E0,2E0,3.7E1],"tree_param":{"num_deleted":"0","num_feature":"100","num_nodes":"33","size_leaf_vector":"0"}},{"base_weights":[3.27461E-6,-8.2404637E-7,1.5484174E-2,-6.4955066E-6,5.2470685E-4,1.896E-2,4.266262E-3,-1.0619611E-6,-2.176771E-3,2.9352596E-3,-2.3261289E-4,-7.69651E-6,3.7030596E-3,-7.1961284E-3,-4.807585E-4,1.0550246E-3,9.966989E-3,7.7878445E-5,-7.1605146E-3,2.6743269E-6,-2.6904289E-3,8.137326E-3,-6.6473265E-4,-2.505352E-3,-1.7670393E-2,-1.960598E-3,3.792246E-3,-1.2357075E-3,4.3856204E-3,1.3897121E-2,1.4044842E-3,-6.920735E-3,3.1558255E-4,-9.847224E-3,-2.982537E-3,-4.216478E-6,9.577975E-3,-7.0814723E-3,2.246925E-3,7.560053E-4,1.1192747E-2,-6.3169478E-3,3.4675258E-3,-1.2371659E-3,-4.4231415E-3,-1.1199005E-3,-4.4128895E-3,7.215897E-3,2.7644634E-4,-5.559611E-3,8.4204023E-4,2.9591718E-4,5.3710565E-3,2.2322536E-3,-1.2552738E-4,6.7572604E-4,-4.718999E-3],"categories":[],"categories_nodes":[],"categories_segments":[],"categories_sizes":[],"default_left":[1,1,1,1,1,0,0,1,1,1,1,1,1,1,1,1,1,1,1,1,1,1,1,1,0,1,1,1,1,0,1,0,1,0,0,0,0,0,0,0,0,0,0,0,0,0,0,0,0,0,0,0,0,0,0,0,0],"id":41,"left_children":[1,3,5,7,9,-1,-1,11,13,15,17,19,21,23,25,27,29,31,33,35,37,39,41,43,-1,45,47,49,51,-1,53,-1,55,-1,-1,-1,-1,-1,-1,-1,-1,-1,-1,-1,-1,-1,-1,-1,-1,-1,-1,-1,-1,-1,-1,-1,-1],"loss_changes":[7.1916514E-4,3.377875E-5,3.608613E-5,1.3221285E-4,2.2157542E-4,0E0,0E0,2.7490186E-4,2.349014E-4,3.7290234E-4,2.0060562E-4,3.1066965E-4,3.9276824E-4,2.9965653E-4,1.46549E-4,1.8852743E-4,1.8239242E-4,1.51908E-4,1.5530342E-5,7.340189E-4,9.481574E-4,2.1706865E-4,2.7882474E-4,9.120522E-6,0E0,3.0105803E-5,7.022643E-5,1.3944114E-4,3.8712038E-5,0E0,4.079699E-6,0E0,1.6274786E-4,0E0,0E0,0E0,0E0,0E0,0E0,0E0,0E0,0E0,0E0,0E0,0E0,0E0,0E0,0E0,0E0,0E0,0E0,0E0,0E0,0E0,0E0,0E0,0E0],"parents":[2147483647,0,0,1,1,2,2,3,3,4,4,7,7,8,8,9,9,10,10,11,11,12,12,13,13,14,14,15,15,16,16,17,17,18,18,19,19,20,20,21,21,22,22,23,23,25,25,26,26,27,27,28,28,30,30,32,32],"right_children":[2,4,6,8,10,-1,-1,12,14,16,18,20,22,24,26,28,30,32,34,36,38,40,42,44,-1,46,48,50,52,-1,54,-1,56,-1,-1,-1,-1,-1,-1,-1,-1,-1,-1,-1,-1,-1,-1,-1,-1,-1,-1,-1,-1,-1,-1,-1,-1],"split_conditions":[1.1945E1,2.69E0,2.007E3,8.85E-1,3.1550002E0,5.688E-3,1.2798787E-3,6.95E-1,1.06E0,5E-1,5E-1,1.575E0,1.985E0,1.035E0,2.0125E3,2.97E0,2.0105E3,3.2E0,1.63E0,1.485E0,2.0149999E0,7.5E-2,2.245E0,2.0105E3,-5.301118E-3,2.925E0,3.72E0,4.955E0,4E-2,4.1691363E-3,2.775E0,-2.0762205E-3,5E-1,-2.9541673E-3,-8.947611E-4,-1.2649434E-6,2.8733925E-3,-2.1244418E-3,6.740775E-4,2.268016E-4,3.3578244E-3,-1.8950844E-3,1.0402577E-3,-3.7114977E-4,-1.3269425E-3,-3.3597017E-4,-1.3238669E-3,2.1647692E-3,8.2933904E-5,-1.6678834E-3,2.5261208E-4,8.877516E-5,1.611317E-3,6.696761E-4,-3.7658217E-5,2.0271783E-4,-1.4156997E-3],"split_indices":[2,1,0,4,1,0,0,4,4,52,39,2,2,4,0,1,0,1,2,2,2,3,2,0,0,2,2,5,3,0,1,0,95,0,0,0,0,0,0,0,0,0,0,0,0,0,0,0,0,0,0,0,0,0,0,0,0],"split_type":[0,0,0,0,0,0,0,0,0,0,0,0,0,0,0,0,0,0,0,0,0,0,0,0,0,0,0,0,0,0,0,0,0,0,0,0,0,0,0,0,0,0,0,0,0,0,0,0,0,0,0,0,0,0,0,0,0],"sum_hessian":[1.1333E4,1.1331E4,2E0,1.1211E4,1.2E2,1E0,1E0,1.1184E4,2.7E1,2.8E1,9.2E1,1.1165E4,1.9E1,6E0,2.1E1,2.3E1,5E0,8.9E1,3E0,1.1123E4,4.2E1,9E0,1E1,5E0,1E0,1.6E1,5E0,1.4E1,9E0,3E0,2E0,2E0,8.7E1,1E0,2E0,1.1116E4,7E0,2.2E1,2E1,3E0,6E0,4E0,6E0,4E0,1E0,1.3E1,3E0,2E0,3E0,4E0,1E1,2E0,7E0,1E0,1E0,8.2E1,5E0],"tree_param":{"num_deleted":"0","num_feature":"100","num_nodes":"57","size_leaf_vector":"0"}},{"base_weights":[2.5262534E-6,-9.576794E-7,1.3161659E-2,6.0465986E-6,-3.4363853E-4,1.6116142E-2,3.6263466E-3,-5.5713485E-6,1.8644937E-3,-5.7377317E-3,-1.2039433E-4,5.3917547E-6,-2.1556106E-3,2.7629206E-4,6.0294303E-3,3.5779104E-3,-1.0991871E-2,1.1601789E-3,-7.1719254E-4,-4.3005984E-6,1.0641241E-2,-1.0063461E-2,-1.0053993E-3,6.155034E-3,-1.4942378E-3,8.260824E-3,-4.4035017E-3,-4.8014522E-4,7.876039E-3,1.5339834E-3,-7.69945E-3,-1.892297E-3,1.0770023E-3,5.942488E-7,-1.3767558E-3,1.186353E-2,3.8347244E-3,1.2512016E-3,-3.1365384E-3,7.6074274E-3,-4.910648E-3,-9.242749E-3,-3.7654903E-4,9.079178E-3,-2.007246E-3,3.1183958E-3,-7.950266E-3,-5.365047E-4,3.620251E-3,-1.0973817E-3,-9.012927E-3,2.7903575E-3,-4.0939E-4],"categories":[],"categories_nodes":[],"categories_segments":[],"categories_sizes":[],"default_left":[1,1,1,1,1,0,0,1,1,1,1,1,1,1,1,1,0,1,1,1,1,0,1,1,1,1,1,0,0,1,0,1,1,0,0,0,0,0,0,0,0,0,0,0,0,0,0,0,0,0,0,0,0],"id":42,"left_children":[1,3,5,7,9,-1,-1,11,13,15,17,19,21,23,25,27,-1,29,31,33,35,-1,37,39,41,43,45,-1,-1,47,-1,49,51,-1,-1,-1,-1,-1,-1,-1,-1,-1,-1,-1,-1,-1,-1,-1,-1,-1,-1,-1,-1],"loss_changes":[5.196259E-4,2.7201508E-5,2.6073016E-5,2.3980382E-4,2.726626E-4,0E0,0E0,2.6018947E-4,4.5475253E-4,4.798391E-4,1.6820148E-4,1.1322437E-3,4.992413E-4,5.4002996E-4,4.7869608E-4,7.354982E-5,0E0,2.4363465E-4,3.1829294E-4,7.37237E-5,3.7701917E-5,0E0,2.4438096E-4,2.3021814E-4,3.429366E-4,1.526709E-4,1.3150567E-4,0E0,0E0,2.956746E-4,0E0,5.0519645E-4,1.5394541E-4,0E0,0E0,0E0,0E0,0E0,0E0,0E0,0E0,0E0,0E0,0E0,0E0,0E0,0E0,0E0,0E0,0E0,0E0,0E0,0E0],"parents":[2147483647,0,0,1,1,2,2,3,3,4,4,7,7,8,8,9,9,10,10,11,11,12,12,13,13,14,14,15,15,17,17,18,18,19,19,20,20,22,22,23,23,24,24,25,25,26,26,29,29,31,31,32,32],"right_children":[2,4,6,8,10,-1,-1,12,14,16,18,20,22,24,26,28,-1,30,32,34,36,-1,38,40,42,44,46,-1,-1,48,-1,50,52,-1,-1,-1,-1,-1,-1,-1,-1,-1,-1,-1,-1,-1,-1,-1,-1,-1,-1,-1,-1],"split_conditions":[1.1945E1,3.71E0,